package org.nekorp.workflow.desktop.view.resource.imp;

import java.awt.*;
import static java.awt.Color.*;
import java.awt.geom.*;
import org.nekorp.workflow.desktop.view.resource.ShapeView;

/**
 * This class has been automatically generated using
 * <a href="https://flamingo.dev.java.net">Flamingo SVG transcoder</a>.
 */
@org.springframework.stereotype.Component("autoCuatroRearView")
public class AutoCuatroRearView extends ShapeView {

    private Shape autoShape;
    /**
     * Paints the transcoded SVG image on the specified graphics context. You
     * can install a custom transformation on the graphics context to scale the
     * image.
     * 
     * @param g Graphics context.
     */
    @Override
    public void paint(Graphics gOld) {
        Graphics2D g = (Graphics2D) gOld;
        RenderingHints rh = new RenderingHints(
            RenderingHints.KEY_ANTIALIASING,
            RenderingHints.VALUE_ANTIALIAS_ON);
        g.setRenderingHints(rh);
        Shape shape;
        
        float origAlpha = 1.0f;
        Composite origComposite = ((Graphics2D)g).getComposite();
        if (origComposite instanceof AlphaComposite) {
            AlphaComposite origAlphaComposite = (AlphaComposite)origComposite;
            if (origAlphaComposite.getRule() == AlphaComposite.SRC_OVER) {
                origAlpha = origAlphaComposite.getAlpha();
            }
        }
        
        java.util.LinkedList<AffineTransform> transformations = new java.util.LinkedList<>();
        
        // 

        // _0

        // _0_0

        // _0_0_0

        // _0_0_0_0
        shape = new GeneralPath();
        ((GeneralPath) shape).moveTo(31.159807, 61.84015);
        ((GeneralPath) shape).lineTo(26.106186, 61.90114);
        ((GeneralPath) shape).curveTo(26.490522, 60.16837, 26.901314, 58.4356, 27.170597, 56.702835);
        ((GeneralPath) shape).curveTo(27.681252, 54.50495, 21.846165, 54.61206, 21.142044, 54.39104);
        ((GeneralPath) shape).curveTo(16.24852, 54.30983, 11.387942, 53.824017, 4.9594994, 55.932236);
        ((GeneralPath) shape).curveTo(0.20488644, 57.854267, 0.88152266, 59.994667, 0.5175462, 61.326416);
        ((GeneralPath) shape).curveTo(0.35999292, 64.12054, 0.48758328, 66.25458, 0.8652278, 69.56171);
        ((GeneralPath) shape).curveTo(1.2337382, 71.05249, 3.8352094, 71.45538, 5.300059, 71.52582);
        ((GeneralPath) shape).curveTo(12.087412, 71.53862, 17.50853, 71.55134, 23.612762, 71.56411);
        ((GeneralPath) shape).lineTo(24.360657, 68.90464);
        ((GeneralPath) shape).lineTo(27.654503, 68.92734);
        ((GeneralPath) shape).curveTo(22.354523, 79.246056, 19.468761, 88.00545, 19.578144, 97.59682);
        ((GeneralPath) shape).curveTo(18.491566, 109.90851, 19.876402, 121.36558, 22.630709, 135.00574);
        ((GeneralPath) shape).curveTo(22.629608, 139.92778, 22.642828, 174.68025, 22.639608, 186.06903);
        ((GeneralPath) shape).curveTo(22.858122, 187.56638, 24.206316, 190.60037, 27.486088, 190.9005);
        ((GeneralPath) shape).curveTo(30.490273, 190.8904, 38.90927, 190.9197, 43.061527, 190.9119);
        ((GeneralPath) shape).curveTo(45.255394, 190.72792, 47.474773, 189.50143, 47.47241, 186.71341);
        ((GeneralPath) shape).curveTo(47.46521, 178.20744, 47.503696, 168.71985, 47.46951, 165.5124);
        ((GeneralPath) shape).curveTo(49.86716, 163.8805, 50.74435, 163.35547, 52.05818, 163.27872);
        ((GeneralPath) shape).lineTo(224.01404, 163.27072);
        ((GeneralPath) shape).curveTo(225.75012, 163.22632, 227.02602, 164.25719, 228.68065, 165.32721);
        ((GeneralPath) shape).curveTo(228.68665, 166.28983, 228.62054, 179.75652, 228.68465, 186.5884);
        ((GeneralPath) shape).curveTo(228.70755, 189.02771, 230.2329, 190.52226, 232.87062, 190.91327);
        ((GeneralPath) shape).curveTo(237.50784, 190.94667, 243.79543, 190.91127, 248.75053, 190.92126);
        ((GeneralPath) shape).curveTo(251.56882, 190.47853, 253.04561, 188.41658, 253.51556, 185.97963);
        ((GeneralPath) shape).curveTo(253.49306, 179.70663, 253.57007, 155.13902, 253.49997, 136.32368);
        ((GeneralPath) shape).curveTo(256.12448, 123.89459, 258.15805, 110.75075, 256.7759, 97.538635);
        ((GeneralPath) shape).curveTo(257.16028, 87.920494, 253.45613, 78.36376, 248.76378, 68.905014);
        ((GeneralPath) shape).lineTo(251.52509, 68.905014);
        ((GeneralPath) shape).lineTo(252.23167, 71.56175);
        ((GeneralPath) shape).lineTo(270.04373, 71.56175);
        ((GeneralPath) shape).curveTo(274.08868, 71.41381, 274.95554, 70.08595, 275.00443, 69.55499);
        ((GeneralPath) shape).curveTo(275.34937, 66.563576, 275.791, 61.259975, 274.8439, 58.991386);
        ((GeneralPath) shape).curveTo(274.5031, 58.401844, 273.55682, 55.807068, 265.61362, 54.681427);
        ((GeneralPath) shape).curveTo(262.4374, 54.215416, 256.45184, 54.060753, 251.7902, 54.724888);
        ((GeneralPath) shape).curveTo(249.71222, 55.058914, 248.51668, 55.59183, 248.68935, 56.476204);
        ((GeneralPath) shape).curveTo(248.92227, 58.64464, 249.38126, 60.134903, 249.74953, 61.897316);
        ((GeneralPath) shape).lineTo(245.27641, 61.890118);
        ((GeneralPath) shape).curveTo(238.71742, 44.78191, 223.85841, 10.805603, 213.5088, 3.9559693);
        ((GeneralPath) shape).curveTo(212.31778, 3.3344705, 210.26276, 3.1474361, 204.77414, 2.712599);
        ((GeneralPath) shape).curveTo(183.1912, 1.3769407, 161.34447, 1.2021677, 139.81404, 0.81835234);
        ((GeneralPath) shape).curveTo(121.28386, 1.098447, 89.717155, 1.1414725, 64.96977, 3.338849);
        ((GeneralPath) shape).curveTo(62.60894, 3.6950233, 61.808514, 4.759682, 60.281967, 6.132264);
        ((GeneralPath) shape).curveTo(52.04957, 14.381594, 39.769836, 39.53976, 31.159807, 61.84003);
        ((GeneralPath) shape).closePath();

        g.setPaint(WHITE);
        g.fill(shape);
        this.autoShape = shape;

        // _0_0_0_1
        shape = new GeneralPath();
        ((GeneralPath) shape).moveTo(256.82794, 97.64891);
        ((GeneralPath) shape).curveTo(257.1818, 81.02318, 246.97514, 67.05872, 244.25604, 59.395966);
        ((GeneralPath) shape).curveTo(226.21057, 14.158632, 215.8287, 5.013984, 213.11134, 3.7767746);
        ((GeneralPath) shape).curveTo(208.16553, 1.5548034, 138.21162, 0.81170094, 138.21162, 0.81170094);
        ((GeneralPath) shape).curveTo(138.21162, 0.81170094, 68.25731, 1.5548034, 63.31321, 3.7767744);
        ((GeneralPath) shape).curveTo(60.59411, 5.013984, 50.212254, 14.158632, 32.1669, 59.395966);
        ((GeneralPath) shape).curveTo(29.44789, 67.05872, 19.241106, 81.02318, 19.595093, 97.64891);

        g.fill(shape);
        g.setPaint(new Color(0x1E1D1F));
        g.setStroke(new BasicStroke(0.8990288f, 0, 0, 4));
        g.draw(shape);

        // _0_0_0_2
        shape = new GeneralPath();
        ((GeneralPath) shape).moveTo(138.21162, 7.933747);
        ((GeneralPath) shape).curveTo(138.21162, 7.933747, 210.14455, 8.289331, 213.60545, 9.031139);
        ((GeneralPath) shape).curveTo(217.06421, 9.770789, 234.3696, 49.569923, 237.83008, 58.468597);
        ((GeneralPath) shape).curveTo(240.79515, 58.962704, 242.7759, 56.985413, 248.45834, 70.33407);
        ((GeneralPath) shape).curveTo(255.03752, 85.78171, 262.2558, 98.808876, 252.41293, 141.27963);
        ((GeneralPath) shape).curveTo(248.21237, 158.3369, 242.77246, 166.73996, 236.34517, 167.48167);
        ((GeneralPath) shape).curveTo(229.9192, 168.22168, 227.6942, 163.27927, 224.23329, 163.27927);
        ((GeneralPath) shape).curveTo(220.77283, 163.27927, 138.21164, 163.27927, 138.21164, 163.27927);
        ((GeneralPath) shape).curveTo(138.21164, 163.27927, 55.65004, 163.27927, 52.18956, 163.27927);
        ((GeneralPath) shape).curveTo(48.728653, 163.27927, 46.503662, 168.22168, 40.076126, 167.48167);
        ((GeneralPath) shape).curveTo(33.650303, 166.73996, 28.210594, 158.3369, 24.009865, 141.27963);
        ((GeneralPath) shape).curveTo(14.167166, 98.803696, 21.383589, 85.785164, 27.962807, 70.33407);
        ((GeneralPath) shape).curveTo(33.64862, 56.985413, 35.627594, 58.962704, 38.59271, 58.468597);
        ((GeneralPath) shape).curveTo(42.05323, 49.569923, 59.3569, 9.770789, 62.817806, 9.031139);
        ((GeneralPath) shape).curveTo(66.28001, 8.289331, 138.21162, 7.933747, 138.21162, 7.933747);
        ((GeneralPath) shape).closePath();

        g.setPaint(WHITE);
        g.fill(shape);
        g.setPaint(new Color(0x1E1D1F));
        g.draw(shape);

        // _0_0_0_3
        shape = new GeneralPath();
        ((GeneralPath) shape).moveTo(228.68024, 165.5145);
        ((GeneralPath) shape).curveTo(228.68024, 165.5145, 228.68024, 182.26007, 228.68024, 186.51132);
        ((GeneralPath) shape).curveTo(228.68024, 190.76431, 233.07974, 190.91267, 233.07974, 190.91267);
        ((GeneralPath) shape).curveTo(233.07974, 190.91267, 244.20728, 190.91267, 248.7013, 190.91267);
        ((GeneralPath) shape).curveTo(252.97263, 190.35133, 253.51895, 185.96686, 253.51895, 185.96686);
        ((GeneralPath) shape).lineTo(253.51895, 134.89899);
        ((GeneralPath) shape).curveTo(253.51895, 119.121216, 249.85738, 120.0719, 249.90659, 119.894966);
        ((GeneralPath) shape).lineTo(26.245087, 119.897964);
        ((GeneralPath) shape).curveTo(26.293976, 120.07144, 22.630985, 119.12077, 22.630985, 134.90027);
        ((GeneralPath) shape).lineTo(22.630985, 185.96643);
        ((GeneralPath) shape).curveTo(22.630985, 185.96643, 23.178862, 190.3509, 27.450363, 190.91225);
        ((GeneralPath) shape).curveTo(31.944407, 190.91225, 43.069927, 190.91225, 43.069927, 190.91225);
        ((GeneralPath) shape).curveTo(43.069927, 190.91225, 47.471146, 190.76389, 47.471146, 186.5109);
        ((GeneralPath) shape).curveTo(47.471146, 182.25963, 47.471146, 165.51407, 47.471146, 165.51407);

        g.draw(shape);

        // _0_0_0_4
        shape = new GeneralPath();
        ((GeneralPath) shape).moveTo(260.32727, 54.29825);
        ((GeneralPath) shape).curveTo(260.32727, 54.29825, 271.8557, 54.20374, 274.66586, 58.62352);
        ((GeneralPath) shape).curveTo(276.11884, 61.189426, 275.00635, 69.56033, 275.00635, 69.56033);
        ((GeneralPath) shape).curveTo(275.00635, 69.56033, 274.91354, 71.56956, 269.19574, 71.56956);
        ((GeneralPath) shape).curveTo(263.4796, 71.56956, 252.23254, 71.56956, 252.23254, 71.56956);
        ((GeneralPath) shape).curveTo(252.23254, 71.56956, 248.67929, 58.589863, 248.67929, 56.275543);
        ((GeneralPath) shape).curveTo(248.67929, 53.95777, 260.32727, 54.298252, 260.32727, 54.298252);
        ((GeneralPath) shape).closePath();

        g.draw(shape);

        // _0_0_0_5
        shape = new GeneralPath();
        ((GeneralPath) shape).moveTo(249.74776, 61.895412);
        ((GeneralPath) shape).lineTo(244.24095, 61.895412);

        g.draw(shape);

        // _0_0_0_6
        shape = new GeneralPath();
        ((GeneralPath) shape).moveTo(251.51791, 68.90483);
        ((GeneralPath) shape).lineTo(247.62073, 68.90483);

        g.draw(shape);

        // _0_0_0_7
        shape = new GeneralPath();
        ((GeneralPath) shape).moveTo(15.534267, 54.29825);
        ((GeneralPath) shape).curveTo(15.534267, 54.29825, 4.007592, 54.20374, 1.1958647, 58.62352);
        ((GeneralPath) shape).curveTo(-0.25550675, 61.189426, 0.85704106, 69.56033, 0.85704106, 69.56033);
        ((GeneralPath) shape).curveTo(0.85704106, 69.56033, 0.94974905, 71.56956, 6.6658883, 71.56956);
        ((GeneralPath) shape).curveTo(12.382038, 71.56956, 23.628906, 71.56956, 23.628906, 71.56956);
        ((GeneralPath) shape).curveTo(23.628906, 71.56956, 27.182335, 58.589863, 27.182335, 56.275543);
        ((GeneralPath) shape).curveTo(27.182335, 53.95777, 15.534269, 54.298252, 15.534269, 54.298252);
        ((GeneralPath) shape).closePath();

        g.draw(shape);

        // _0_0_0_8
        shape = new GeneralPath();
        ((GeneralPath) shape).moveTo(26.115278, 61.895412);
        ((GeneralPath) shape).lineTo(31.622435, 61.895412);

        g.draw(shape);

        // _0_0_0_9
        shape = new GeneralPath();
        ((GeneralPath) shape).moveTo(24.343657, 68.90483);
        ((GeneralPath) shape).lineTo(28.240932, 68.90483);

        g.draw(shape);

        // _0_0_0_10
        shape = new GeneralPath();
        ((GeneralPath) shape).moveTo(72.62659, 25.855806);
        ((GeneralPath) shape).curveTo(73.72053, 22.627497, 75.04059, 20.461624, 78.02077, 20.461624);
        ((GeneralPath) shape).lineTo(100.94604, 20.461624);
        ((GeneralPath) shape).curveTo(103.924484, 20.461624, 105.14358, 22.499762, 106.34022, 25.855806);
        ((GeneralPath) shape).lineTo(109.93577, 39.04264);
        ((GeneralPath) shape).curveTo(109.93577, 42.021523, 107.520035, 44.43682, 104.54159, 44.43682);
        ((GeneralPath) shape).lineTo(74.42349, 44.43682);
        ((GeneralPath) shape).curveTo(71.44504, 44.43682, 69.02931, 42.021523, 69.02931, 39.04264);
        ((GeneralPath) shape).lineTo(72.62659, 25.855808);
        ((GeneralPath) shape).closePath();

        g.draw(shape);

        // _0_0_0_11
        shape = new GeneralPath();
        ((GeneralPath) shape).moveTo(78.76905, 51.028076);
        ((GeneralPath) shape).lineTo(81.63133, 51.028076);
        ((GeneralPath) shape).lineTo(81.63133, 44.437077);
        ((GeneralPath) shape).lineTo(78.76905, 44.437077);
        ((GeneralPath) shape).lineTo(78.76905, 51.028076);
        ((GeneralPath) shape).closePath();

        g.draw(shape);

        // _0_0_0_12
        shape = new GeneralPath();
        ((GeneralPath) shape).moveTo(98.532036, 51.028076);
        ((GeneralPath) shape).lineTo(101.39432, 51.028076);
        ((GeneralPath) shape).lineTo(101.39432, 44.437077);
        ((GeneralPath) shape).lineTo(98.532036, 44.437077);
        ((GeneralPath) shape).lineTo(98.532036, 51.028076);
        ((GeneralPath) shape).closePath();

        g.draw(shape);

        // _0_0_0_13
        shape = new GeneralPath();
        ((GeneralPath) shape).moveTo(171.37721, 25.855806);
        ((GeneralPath) shape).curveTo(172.47287, 22.627497, 173.79294, 20.461624, 176.7714, 20.461624);
        ((GeneralPath) shape).lineTo(199.69666, 20.461624);
        ((GeneralPath) shape).curveTo(202.67683, 20.461624, 203.89592, 22.499762, 205.09084, 25.855806);
        ((GeneralPath) shape).lineTo(208.68811, 39.04264);
        ((GeneralPath) shape).curveTo(208.68811, 42.021523, 206.2724, 44.43682, 203.29393, 44.43682);
        ((GeneralPath) shape).lineTo(173.17584, 44.43682);
        ((GeneralPath) shape).curveTo(170.19739, 44.43682, 167.78166, 42.021523, 167.78166, 39.04264);
        ((GeneralPath) shape).lineTo(171.37721, 25.855808);
        ((GeneralPath) shape).closePath();

        g.draw(shape);

        // _0_0_0_14
        shape = new GeneralPath();
        ((GeneralPath) shape).moveTo(177.5214, 51.028076);
        ((GeneralPath) shape).lineTo(180.382, 51.028076);
        ((GeneralPath) shape).lineTo(180.382, 44.437077);
        ((GeneralPath) shape).lineTo(177.5214, 44.437077);
        ((GeneralPath) shape).lineTo(177.5214, 51.028076);
        ((GeneralPath) shape).closePath();

        g.draw(shape);

        // _0_0_0_15
        shape = new GeneralPath();
        ((GeneralPath) shape).moveTo(197.2844, 51.028076);
        ((GeneralPath) shape).lineTo(200.14667, 51.028076);
        ((GeneralPath) shape).lineTo(200.14667, 44.437077);
        ((GeneralPath) shape).lineTo(197.2844, 44.437077);
        ((GeneralPath) shape).lineTo(197.2844, 51.028076);
        ((GeneralPath) shape).closePath();

        g.draw(shape);

        // _0_0_0_16
        shape = new GeneralPath();
        ((GeneralPath) shape).moveTo(121.21822, 25.855806);
        ((GeneralPath) shape).curveTo(122.313896, 22.627497, 123.63352, 20.461624, 126.612404, 20.461624);
        ((GeneralPath) shape).lineTo(149.53769, 20.461624);
        ((GeneralPath) shape).curveTo(152.51614, 20.461624, 153.73653, 22.499762, 154.93187, 25.855806);
        ((GeneralPath) shape).lineTo(158.52914, 39.04264);
        ((GeneralPath) shape).curveTo(158.52914, 42.021523, 156.11342, 44.43682, 153.13496, 44.43682);
        ((GeneralPath) shape).lineTo(123.01688, 44.43682);
        ((GeneralPath) shape).curveTo(120.03801, 44.43682, 117.622696, 42.021523, 117.622696, 39.04264);
        ((GeneralPath) shape).lineTo(121.218254, 25.855808);
        ((GeneralPath) shape).closePath();

        g.draw(shape);

        // _0_0_0_17
        shape = new GeneralPath();
        ((GeneralPath) shape).moveTo(127.36241, 51.028076);
        ((GeneralPath) shape).lineTo(130.22304, 51.028076);
        ((GeneralPath) shape).lineTo(130.22304, 44.437077);
        ((GeneralPath) shape).lineTo(127.36242, 44.437077);
        ((GeneralPath) shape).lineTo(127.36242, 51.028076);
        ((GeneralPath) shape).closePath();

        g.draw(shape);

        // _0_0_0_18
        shape = new GeneralPath();
        ((GeneralPath) shape).moveTo(147.1254, 51.028076);
        ((GeneralPath) shape).lineTo(149.98769, 51.028076);
        ((GeneralPath) shape).lineTo(149.98769, 44.437077);
        ((GeneralPath) shape).lineTo(147.1254, 44.437077);
        ((GeneralPath) shape).lineTo(147.1254, 51.028076);
        ((GeneralPath) shape).closePath();

        g.draw(shape);

        // _0_0_0_19
        shape = new GeneralPath();
        ((GeneralPath) shape).moveTo(44.327415, 167.0889);
        ((GeneralPath) shape).curveTo(44.327415, 167.0889, 49.77036, 158.4094, 56.309402, 158.4094);
        ((GeneralPath) shape).curveTo(62.846287, 158.4094, 138.21162, 158.4094, 138.21162, 158.4094);
        ((GeneralPath) shape).lineTo(223.13116, 158.4094);
        ((GeneralPath) shape).curveTo(223.13116, 158.4094, 228.95514, 159.01096, 234.21252, 167.52042);

        g.draw(shape);

        // _0_0_0_20
        shape = new GeneralPath();
        ((GeneralPath) shape).moveTo(30.019327, 158.4094);
        ((GeneralPath) shape).curveTo(30.019327, 158.4094, 35.846725, 149.03172, 43.37847, 149.03172);
        ((GeneralPath) shape).curveTo(50.908318, 149.03172, 234.21252, 149.03172, 234.21252, 149.03172);
        ((GeneralPath) shape).curveTo(234.21252, 149.03172, 242.11348, 150.16968, 246.40509, 158.4094);

        g.draw(shape);

        // _0_0_0_21
        shape = new GeneralPath();
        ((GeneralPath) shape).moveTo(30.019327, 119.8984);
        ((GeneralPath) shape).curveTo(30.019327, 119.8984, 26.438929, 122.74351, 28.869719, 129.70544);
        ((GeneralPath) shape).curveTo(35.56187, 129.70544, 248.67757, 129.70544, 248.67757, 129.70544);
        ((GeneralPath) shape).curveTo(248.67757, 129.70544, 250.7964, 124.5827, 247.62073, 119.89839);

        g.draw(shape);

        // _0_0_0_22
        shape = new GeneralPath();
        ((GeneralPath) shape).moveTo(139.50752, 11.060646);
        ((GeneralPath) shape).curveTo(139.50752, 11.060646, 205.92198, 11.060646, 205.78043, 11.060646);
        ((GeneralPath) shape).curveTo(205.63889, 11.060646, 218.42612, 25.83725, 223.82721, 51.55714);
        ((GeneralPath) shape).curveTo(220.27396, 56.671688, 215.7273, 57.239586, 214.02145, 64.20499);
        ((GeneralPath) shape).curveTo(212.31732, 71.16866, 204.07458, 107.11721, 200.09627, 111.663864);
        ((GeneralPath) shape).curveTo(195.12326, 111.663864, 139.50752, 111.663864, 139.50752, 111.663864);
        ((GeneralPath) shape).lineTo(138.21162, 111.663864);
        ((GeneralPath) shape).curveTo(138.21162, 111.663864, 82.5959, 111.663864, 77.622894, 111.663864);
        ((GeneralPath) shape).curveTo(73.64458, 107.11721, 65.40184, 71.168655, 63.697704, 64.20499);
        ((GeneralPath) shape).curveTo(61.991848, 57.239586, 57.4452, 56.671688, 53.893673, 51.55714);
        ((GeneralPath) shape).curveTo(59.293034, 25.837252, 72.08027, 11.060646, 71.93872, 11.060646);
        ((GeneralPath) shape).curveTo(71.798904, 11.060646, 138.21161, 11.060646, 138.21161, 11.060646);
        ((GeneralPath) shape).lineTo(139.5075, 11.060646);
        ((GeneralPath) shape).closePath();

        g.draw(shape);

        // _0_0_0_23
        shape = new GeneralPath();
        ((GeneralPath) shape).moveTo(73.78655, 105.41481);
        ((GeneralPath) shape).lineTo(33.287857, 105.41481);
        ((GeneralPath) shape).curveTo(33.287857, 105.41481, 25.112305, 108.53825, 20.8172, 124.16627);

        g.draw(shape);

        // _0_0_0_24
        shape = new GeneralPath();
        ((GeneralPath) shape).moveTo(65.29568, 70.87003);
        ((GeneralPath) shape).lineTo(49.062645, 70.87003);
        ((GeneralPath) shape).curveTo(49.062645, 70.87003, 38.260643, 78.70368, 39.82496, 105.41481);

        g.draw(shape);

        // _0_0_0_25
        shape = new GeneralPath();
        ((GeneralPath) shape).moveTo(202.52711, 105.41481);
        ((GeneralPath) shape).lineTo(243.02707, 105.41481);
        ((GeneralPath) shape).curveTo(243.02707, 105.41481, 251.2029, 108.53825, 255.49797, 124.16627);

        g.draw(shape);

        // _0_0_0_26
        shape = new GeneralPath();
        ((GeneralPath) shape).moveTo(212.34753, 70.87003);
        ((GeneralPath) shape).lineTo(228.58272, 70.87003);
        ((GeneralPath) shape).curveTo(228.58272, 70.87003, 239.38275, 78.70368, 237.82014, 105.41481);

        g.draw(shape);

        // _0_0_0_27
        shape = new GeneralPath();
        ((GeneralPath) shape).moveTo(210.56918, 78.46418);
        ((GeneralPath) shape).lineTo(67.14998, 78.46418);

        g.draw(shape);

        // _0_0_0_28
        shape = new GeneralPath();
        ((GeneralPath) shape).moveTo(184.2913, 78.46418);
        ((GeneralPath) shape).curveTo(184.2913, 78.46418, 181.1644, 101.28847, 178.46559, 101.28847);
        ((GeneralPath) shape).curveTo(175.76678, 101.28847, 139.27017, 101.28847, 139.27017, 101.28847);
        ((GeneralPath) shape).curveTo(139.27017, 101.28847, 102.77487, 101.28847, 100.07476, 101.28847);
        ((GeneralPath) shape).curveTo(97.37422, 101.28847, 94.24905, 78.46418, 94.24905, 78.46418);

        g.draw(shape);

        // _0_0_0_29
        shape = new GeneralPath();
        ((GeneralPath) shape).moveTo(112.29583, 83.52479);
        ((GeneralPath) shape).lineTo(119.54089, 83.52479);
        ((GeneralPath) shape).lineTo(119.54089, 78.464355);
        ((GeneralPath) shape).lineTo(112.29584, 78.464355);
        ((GeneralPath) shape).lineTo(112.29584, 83.52479);
        ((GeneralPath) shape).closePath();

        g.draw(shape);

        // _0_0_0_30
        shape = new GeneralPath();
        ((GeneralPath) shape).moveTo(157.90858, 83.52479);
        ((GeneralPath) shape).lineTo(165.15536, 83.52479);
        ((GeneralPath) shape).lineTo(165.15536, 78.464355);
        ((GeneralPath) shape).lineTo(157.90858, 78.464355);
        ((GeneralPath) shape).lineTo(157.90858, 83.52479);
        ((GeneralPath) shape).closePath();

        g.draw(shape);

        // _0_0_0_31
        shape = new GeneralPath();
        ((GeneralPath) shape).moveTo(138.21162, 11.630271);
        ((GeneralPath) shape).lineTo(73.45255, 12.540378);
        ((GeneralPath) shape).curveTo(73.45255, 12.540378, 60.439194, 33.827545, 60.570816, 51.029804);
        ((GeneralPath) shape).curveTo(62.911892, 51.029804, 216.97488, 51.029804, 216.97488, 51.029804);
        ((GeneralPath) shape).curveTo(216.97488, 51.029804, 215.805, 32.970947, 204.87337, 12.8018875);
        ((GeneralPath) shape).lineTo(138.21164, 11.63027);
        ((GeneralPath) shape).closePath();

        g.draw(shape);

        // _0_0_0_32
        shape = new GeneralPath();
        ((GeneralPath) shape).moveTo(59.181698, 56.909462);
        ((GeneralPath) shape).lineTo(218.41449, 56.909462);

        g.draw(shape);

        // _0_0_0_33
        shape = new GeneralPath();
        ((GeneralPath) shape).moveTo(146.318, 68.233795);
        ((GeneralPath) shape).curveTo(146.318, 72.40242, 142.93996, 75.78047, 138.77089, 75.78047);
        ((GeneralPath) shape).curveTo(134.60399, 75.78047, 131.22423, 72.40242, 131.22423, 68.233795);
        ((GeneralPath) shape).curveTo(131.22423, 64.063446, 134.60399, 60.68712, 138.77089, 60.68712);
        ((GeneralPath) shape).curveTo(142.93996, 60.68712, 146.318, 64.063446, 146.318, 68.233795);
        ((GeneralPath) shape).closePath();

        g.draw(shape);

        // _0_0_0_34
        shape = new GeneralPath();
        ((GeneralPath) shape).moveTo(128.79338, 110.52763);
        ((GeneralPath) shape).lineTo(149.98746, 110.52763);
        ((GeneralPath) shape).lineTo(149.98746, 101.28839);
        ((GeneralPath) shape).lineTo(128.79338, 101.28839);
        ((GeneralPath) shape).lineTo(128.79338, 110.52763);
        ((GeneralPath) shape).closePath();

        g.draw(shape);
    }

    public Shape getAutoShape() {
        return autoShape;
    }

    @Override
    public boolean shapeContains(double x, double y) {
        return this.autoShape.contains(x, y);
    }

    @Override
    public int getShapeWidth() {
        return 276;
    }

    @Override
    public int getShapeHeight() {
        return 192;
    }
}

