package org.nekorp.workflow.desktop.view.resource.damage;

import java.awt.*;
import static java.awt.Color.*;
import java.awt.geom.*;
import org.nekorp.workflow.desktop.view.resource.ShapeView;

/**
 * This class has been automatically generated using
 * <a href="https://flamingo.dev.java.net">Flamingo SVG transcoder</a>.
 */
@org.springframework.stereotype.Component("autoLeftView")
public class AutoLeftView extends ShapeView {

    private Shape autoShape;
    /**
     * Paints the transcoded SVG image on the specified graphics context. You
     * can install a custom transformation on the graphics context to scale the
     * image.
     * 
     * @param g Graphics context.
     */
    @Override
    public void paint(Graphics gOld) {
        Graphics2D g = (Graphics2D) gOld;
        RenderingHints rh = new RenderingHints(
            RenderingHints.KEY_ANTIALIASING,
            RenderingHints.VALUE_ANTIALIAS_ON);
        g.setRenderingHints(rh);
        Shape shape;
        
        float origAlpha = 1.0f;
        Composite origComposite = ((Graphics2D)g).getComposite();
        if (origComposite instanceof AlphaComposite) {
            AlphaComposite origAlphaComposite = (AlphaComposite)origComposite;
            if (origAlphaComposite.getRule() == AlphaComposite.SRC_OVER) {
                origAlpha = origAlphaComposite.getAlpha();
            }
        }
        
        java.util.LinkedList<AffineTransform> transformations = new java.util.LinkedList<>();
        

        // 

        // _0

        // _0_0

        // _0_0_0
        shape = new GeneralPath();
        ((GeneralPath) shape).moveTo(215.15675, 61.171185);
        ((GeneralPath) shape).curveTo(215.15675, 61.171185, 297.70474, 14.674183, 315.56375, 9.283188);
        ((GeneralPath) shape).curveTo(333.41974, 3.892188, 428.43274, -4.5318117, 474.25775, 7.933188);
        ((GeneralPath) shape).curveTo(509.63376, 19.726196, 579.37775, 48.70319, 579.37775, 48.70319);
        ((GeneralPath) shape).curveTo(579.37775, 48.70319, 589.48773, 52.075188, 595.2147, 50.72519);
        ((GeneralPath) shape).curveTo(600.9417, 49.37819, 614.0817, 44.66219, 614.0817, 44.66219);
        ((GeneralPath) shape).lineTo(651.47974, 44.998188);
        ((GeneralPath) shape).lineTo(648.1107, 50.389187);
        ((GeneralPath) shape).curveTo(648.1107, 50.389187, 660.23975, 55.102184, 662.2647, 85.76518);
        ((GeneralPath) shape).curveTo(671.0217, 92.16718, 678.43774, 90.481186, 678.43774, 101.60218);
        ((GeneralPath) shape).curveTo(678.43774, 112.720184, 683.82574, 124.84918, 671.6937, 133.27017);
        ((GeneralPath) shape).curveTo(672.0357, 137.31418, 674.72675, 140.68617, 674.72675, 140.68617);
        ((GeneralPath) shape).lineTo(679.6288, 140.68617);
        ((GeneralPath) shape).curveTo(679.6288, 140.68617, 680.7928, 148.77126, 673.71875, 150.79326);
        ((GeneralPath) shape).curveTo(667.6528, 151.12926, 659.22876, 148.77126, 655.85974, 148.09926);
        ((GeneralPath) shape).curveTo(653.83777, 148.43526, 655.85974, 156.52026, 655.85974, 156.52026);
        ((GeneralPath) shape).lineTo(578.70276, 156.52026);
        ((GeneralPath) shape).lineTo(575.66974, 135.63118);
        ((GeneralPath) shape).lineTo(571.9647, 135.63118);
        ((GeneralPath) shape).curveTo(571.9647, 135.63118, 580.04974, 188.19127, 528.8397, 190.88828);
        ((GeneralPath) shape).curveTo(491.4417, 190.54927, 484.7007, 163.93327, 483.68973, 162.24727);
        ((GeneralPath) shape).lineTo(471.56073, 162.92227);
        ((GeneralPath) shape).lineTo(470.54974, 169.32426);
        ((GeneralPath) shape).lineTo(198.31174, 170.33527);
        ((GeneralPath) shape).curveTo(198.31174, 170.33527, 185.84674, 170.67126, 184.83574, 164.60826);
        ((GeneralPath) shape).curveTo(180.79173, 172.69327, 167.98773, 191.56026, 141.37173, 192.57426);
        ((GeneralPath) shape).curveTo(114.75273, 193.58226, 101.49274, 168.73926, 99.47074, 163.35126);
        ((GeneralPath) shape).curveTo(97.44874, 162.34026, 96.56074, 169.99925, 96.56074, 169.99925);
        ((GeneralPath) shape).lineTo(88.80874, 169.66025);
        ((GeneralPath) shape).lineTo(88.80874, 173.02925);
        ((GeneralPath) shape).lineTo(8.282738, 172.35725);
        ((GeneralPath) shape).curveTo(8.282738, 172.35725, 3.9027376, 164.26926, 10.304738, 163.59726);
        ((GeneralPath) shape).curveTo(9.632738, 157.87025, 4.913738, 137.98917, 1.2087374, 137.98917);
        ((GeneralPath) shape).curveTo(0.19473732, 129.56816, 1.2087374, 120.80817, 1.2087374, 120.80817);
        ((GeneralPath) shape).lineTo(9.632737, 118.44717);
        ((GeneralPath) shape).curveTo(9.632737, 118.44717, 19.739738, 114.73917, 20.075737, 103.96017);
        ((GeneralPath) shape).curveTo(26.816738, 95.53617, 93.86374, 68.920166, 215.15674, 61.17117);

        g.setPaint(WHITE);
        g.fill(shape);
        autoShape = shape;

        // _0_0_1
        shape = new GeneralPath();
        ((GeneralPath) shape).moveTo(215.15675, 61.171185);
        ((GeneralPath) shape).curveTo(215.15675, 61.171185, 297.70474, 14.674183, 315.56375, 9.283188);
        ((GeneralPath) shape).curveTo(333.41974, 3.892188, 428.43274, -4.5318117, 474.25775, 7.933188);
        ((GeneralPath) shape).curveTo(509.63376, 19.726196, 579.37775, 48.70319, 579.37775, 48.70319);
        ((GeneralPath) shape).curveTo(579.37775, 48.70319, 589.48773, 52.075188, 595.2147, 50.72519);
        ((GeneralPath) shape).curveTo(600.9417, 49.37819, 614.0817, 44.66219, 614.0817, 44.66219);
        ((GeneralPath) shape).lineTo(651.47974, 44.998188);
        ((GeneralPath) shape).lineTo(648.1107, 50.389187);
        ((GeneralPath) shape).curveTo(648.1107, 50.389187, 660.23975, 55.102184, 662.2647, 85.76518);
        ((GeneralPath) shape).curveTo(671.0217, 92.16718, 678.43774, 90.481186, 678.43774, 101.60218);
        ((GeneralPath) shape).curveTo(678.43774, 112.720184, 683.82574, 124.84918, 671.6937, 133.27017);
        ((GeneralPath) shape).curveTo(672.0357, 137.31418, 674.72675, 140.68617, 674.72675, 140.68617);
        ((GeneralPath) shape).lineTo(679.6288, 140.68617);
        ((GeneralPath) shape).curveTo(679.6288, 140.68617, 680.7928, 148.77126, 673.71875, 150.79326);
        ((GeneralPath) shape).curveTo(667.6528, 151.12926, 659.22876, 148.77126, 655.85974, 148.09926);
        ((GeneralPath) shape).curveTo(653.83777, 148.43526, 655.85974, 156.52026, 655.85974, 156.52026);
        ((GeneralPath) shape).lineTo(578.70276, 156.52026);
        ((GeneralPath) shape).lineTo(575.66974, 135.63118);
        ((GeneralPath) shape).lineTo(571.9647, 135.63118);
        ((GeneralPath) shape).curveTo(571.9647, 135.63118, 580.04974, 188.19127, 528.8397, 190.88828);
        ((GeneralPath) shape).curveTo(491.4417, 190.54927, 484.7007, 163.93327, 483.68973, 162.24727);
        ((GeneralPath) shape).lineTo(471.56073, 162.92227);
        ((GeneralPath) shape).lineTo(470.54974, 169.32426);
        ((GeneralPath) shape).lineTo(198.31174, 170.33527);
        ((GeneralPath) shape).curveTo(198.31174, 170.33527, 185.84674, 170.67126, 184.83574, 164.60826);
        ((GeneralPath) shape).curveTo(180.79173, 172.69327, 167.98773, 191.56026, 141.37173, 192.57426);
        ((GeneralPath) shape).curveTo(114.75273, 193.58226, 101.49274, 168.73926, 99.47074, 163.35126);
        ((GeneralPath) shape).curveTo(97.44874, 162.34026, 96.56074, 169.99925, 96.56074, 169.99925);
        ((GeneralPath) shape).lineTo(88.80874, 169.66025);
        ((GeneralPath) shape).lineTo(88.80874, 173.02925);
        ((GeneralPath) shape).lineTo(8.282738, 172.35725);
        ((GeneralPath) shape).curveTo(8.282738, 172.35725, 3.9027376, 164.26926, 10.304738, 163.59726);
        ((GeneralPath) shape).curveTo(9.632738, 157.87025, 4.913738, 137.98917, 1.2087374, 137.98917);
        ((GeneralPath) shape).curveTo(0.19473732, 129.56816, 1.2087374, 120.80817, 1.2087374, 120.80817);
        ((GeneralPath) shape).lineTo(9.632737, 118.44717);
        ((GeneralPath) shape).curveTo(9.632737, 118.44717, 19.739738, 114.73917, 20.075737, 103.96017);
        ((GeneralPath) shape).curveTo(26.816738, 95.53617, 93.86374, 68.920166, 215.15674, 61.17117);
        ((GeneralPath) shape).closePath();

        g.setPaint(new Color(0x171516));
        g.setStroke(new BasicStroke(1.516176f, 0, 0, 4));
        g.draw(shape);

        // _0_0_2
        shape = new GeneralPath();
        ((GeneralPath) shape).moveTo(189.32076, 146.26328);
        ((GeneralPath) shape).curveTo(189.32076, 171.87427, 168.55775, 192.63727, 142.94675, 192.63727);
        ((GeneralPath) shape).curveTo(110.48675, 192.63727, 96.56975, 172.73526, 96.56975, 146.26328);
        ((GeneralPath) shape).curveTo(96.56975, 120.649185, 117.33574, 99.88919, 142.94675, 99.88919);
        ((GeneralPath) shape).curveTo(168.55774, 99.88919, 189.32074, 120.649185, 189.32074, 146.26328);

        g.fill(shape);

        // _0_0_3
        shape = new GeneralPath();
        ((GeneralPath) shape).moveTo(572.94275, 146.26328);
        ((GeneralPath) shape).curveTo(572.94275, 171.87427, 552.17676, 192.63727, 526.5687, 192.63727);
        ((GeneralPath) shape).curveTo(500.9547, 192.63727, 480.1917, 171.87427, 480.1917, 146.26328);
        ((GeneralPath) shape).curveTo(480.1917, 120.649185, 500.9547, 99.88919, 526.5687, 99.88919);
        ((GeneralPath) shape).curveTo(552.1767, 99.88919, 572.94275, 120.649185, 572.94275, 146.26328);

        g.fill(shape);

        // _0_0_4
        shape = new GeneralPath();
        ((GeneralPath) shape).moveTo(313.13974, 10.117185);
        ((GeneralPath) shape).curveTo(313.13974, 10.117185, 316.10675, 15.010183, 313.13974, 16.360184);
        ((GeneralPath) shape).curveTo(310.16974, 17.704184, 230.65775, 64.537186, 230.65775, 64.537186);
        ((GeneralPath) shape).curveTo(230.65775, 64.537186, 223.82675, 68.82719, 217.63774, 59.776184);

        g.setStroke(new BasicStroke(1.010787f, 0, 0, 4));
        g.draw(shape);

        // _0_0_5
        shape = new GeneralPath();
        ((GeneralPath) shape).moveTo(20.075754, 103.96018);
        ((GeneralPath) shape).curveTo(20.075754, 103.96018, 50.060753, 101.26618, 55.790756, 106.318184);
        ((GeneralPath) shape).curveTo(58.148758, 108.676186, 58.487755, 118.44718, 58.487755, 118.44718);

        g.draw(shape);

        // _0_0_6
        shape = new GeneralPath();
        ((GeneralPath) shape).moveTo(20.075754, 118.44718);
        ((GeneralPath) shape).curveTo(19.400755, 117.43618, 24.071754, 108.220184, 25.760754, 103.56418);

        g.draw(shape);

        // _0_0_7
        shape = new GeneralPath();
        ((GeneralPath) shape).moveTo(30.521755, 118.44718);
        ((GeneralPath) shape).curveTo(30.521755, 118.44718, 33.551754, 101.89618, 47.366753, 97.03018);
        ((GeneralPath) shape).curveTo(60.845753, 91.831184, 107.006744, 69.928185, 240.08975, 67.57018);
        ((GeneralPath) shape).curveTo(373.17877, 65.21218, 622.8418, 59.485184, 622.8418, 59.485184);
        ((GeneralPath) shape).curveTo(622.8418, 59.485184, 636.9928, 58.474182, 648.1108, 50.389183);

        g.draw(shape);

        // _0_0_8
        shape = new GeneralPath();
        ((GeneralPath) shape).moveTo(589.22974, 50.875183);
        ((GeneralPath) shape).lineTo(572.3037, 54.430183);
        ((GeneralPath) shape).lineTo(639.6957, 55.120182);
        ((GeneralPath) shape).curveTo(639.6957, 55.120182, 646.84467, 59.15818, 648.3207, 65.554184);

        g.draw(shape);

        // _0_0_9
        shape = new GeneralPath();
        ((GeneralPath) shape).moveTo(259.70676, 55.120186);
        ((GeneralPath) shape).curveTo(259.70676, 55.120186, 315.13776, 20.065186, 338.26175, 17.704185);
        ((GeneralPath) shape).curveTo(361.38574, 15.349186, 422.36676, 8.947187, 451.01074, 22.087185);
        ((GeneralPath) shape).curveTo(479.64575, 35.22719, 504.91776, 50.389187, 504.91776, 50.389187);
        ((GeneralPath) shape).curveTo(504.91776, 50.389187, 517.69476, 57.832184, 472.23575, 58.900185);

        g.draw(shape);

        // _0_0_10
        shape = new GeneralPath();
        ((GeneralPath) shape).moveTo(474.25775, 7.9331856);
        ((GeneralPath) shape).curveTo(474.25775, 7.9331856, 468.19174, 14.335184, 477.62375, 20.065186);
        ((GeneralPath) shape).curveTo(487.05875, 25.792194, 523.10974, 51.568184, 534.9028, 52.999184);
        ((GeneralPath) shape).curveTo(546.6958, 54.430183, 580.4878, 49.048183, 580.79675, 49.135185);

        g.setStroke(new BasicStroke(2.021574f, 0, 0, 4));
        g.draw(shape);

        // _0_0_11
        shape = new GeneralPath();
        ((GeneralPath) shape).moveTo(478.29276, 9.304195);
        ((GeneralPath) shape).curveTo(478.29276, 9.304195, 472.57175, 13.999184, 483.35376, 20.065184);
        ((GeneralPath) shape).curveTo(494.13577, 26.128183, 527.2018, 47.689186, 536.24976, 50.389183);
        ((GeneralPath) shape).curveTo(545.68475, 51.061184, 570.7587, 48.550182, 573.88776, 46.438183);

        g.setStroke(new BasicStroke(1.010787f, 0, 0, 4));
        g.draw(shape);

        // _0_0_12
        shape = new GeneralPath();
        ((GeneralPath) shape).moveTo(58.487755, 100.59118);
        ((GeneralPath) shape).lineTo(112.05875, 93.51418);

        g.draw(shape);

        // _0_0_13
        shape = new GeneralPath();
        ((GeneralPath) shape).moveTo(171.35675, 87.787186);
        ((GeneralPath) shape).curveTo(171.35675, 87.787186, 596.56177, 72.96419, 630.25476, 75.32219);

        g.draw(shape);

        // _0_0_14
        shape = new GeneralPath();
        ((GeneralPath) shape).moveTo(657.34174, 62.122185);
        ((GeneralPath) shape).curveTo(657.34174, 62.122185, 631.26575, 70.60319, 630.25476, 79.02718);
        ((GeneralPath) shape).curveTo(629.2438, 87.45119, 626.88574, 150.79327, 626.88574, 150.79327);

        g.draw(shape);

        // _0_0_15
        shape = new GeneralPath();
        ((GeneralPath) shape).moveTo(629.74176, 85.774185);
        ((GeneralPath) shape).lineTo(662.2648, 85.76518);

        g.draw(shape);

        // _0_0_16
        shape = new GeneralPath();
        ((GeneralPath) shape).moveTo(639.69574, 91.831184);
        ((GeneralPath) shape).curveTo(639.69574, 91.831184, 666.0327, 94.86418, 675.74976, 93.51418);

        g.draw(shape);

        // _0_0_17
        shape = new GeneralPath();
        ((GeneralPath) shape).moveTo(416.97574, 65.554184);
        ((GeneralPath) shape).lineTo(416.97574, 111.00718);
        ((GeneralPath) shape).curveTo(416.97574, 111.00718, 412.93475, 143.04417, 400.80573, 148.09927);
        ((GeneralPath) shape).curveTo(389.01273, 148.09927, 235.70973, 148.09927, 235.70973, 148.09927);
        ((GeneralPath) shape).curveTo(235.70973, 148.09927, 227.62473, 137.65318, 227.28574, 123.83818);
        ((GeneralPath) shape).curveTo(226.94974, 110.026184, 222.20674, 76.621185, 241.42474, 67.54918);
        ((GeneralPath) shape).curveTo(241.42474, 67.54918, 309.50073, 20.06519, 327.35675, 16.36018);
        ((GeneralPath) shape).curveTo(345.21274, 12.65218, 410.57675, 9.619191, 426.07477, 11.97719);
        ((GeneralPath) shape).curveTo(441.57578, 14.33519, 485.71176, 24.274181, 514.0138, 52.999184);
        ((GeneralPath) shape).curveTo(517.3828, 58.474182, 513.6778, 58.138184, 507.2758, 58.138184);
        ((GeneralPath) shape).curveTo(500.8708, 58.138184, 278.83777, 63.529182, 278.83777, 63.529182);

        g.setStroke(new BasicStroke(2.021574f, 0, 0, 4));
        g.draw(shape);

        // _0_0_18
        shape = new GeneralPath();
        ((GeneralPath) shape).moveTo(195.61475, 133.94518);
        ((GeneralPath) shape).lineTo(228.88774, 133.94518);

        g.setStroke(new BasicStroke(1.010787f, 0, 0, 4));
        g.draw(shape);

        // _0_0_19
        shape = new GeneralPath();
        ((GeneralPath) shape).moveTo(411.84576, 132.56818);
        ((GeneralPath) shape).lineTo(470.88577, 132.56818);

        g.draw(shape);

        // _0_0_20
        shape = new GeneralPath();
        ((GeneralPath) shape).moveTo(204.71375, 164.27226);
        ((GeneralPath) shape).curveTo(204.71375, 164.27226, 323.11774, 162.58327, 340.22974, 162.58327);
        ((GeneralPath) shape).curveTo(357.34174, 162.58327, 466.84473, 164.27226, 466.84473, 164.27226);

        g.draw(shape);

        // _0_0_21
        shape = new GeneralPath();
        ((GeneralPath) shape).moveTo(577.48175, 148.09927);
        ((GeneralPath) shape).curveTo(577.48175, 148.09927, 656.5347, 139.67519, 674.72675, 140.68619);

        g.draw(shape);

        // _0_0_22
        shape = new GeneralPath();
        ((GeneralPath) shape).moveTo(648.32074, 68.92018);
        ((GeneralPath) shape).lineTo(659.6547, 68.92018);

        g.draw(shape);

        // _0_0_23
        shape = new GeneralPath();
        ((GeneralPath) shape).moveTo(648.32074, 75.064186);
        ((GeneralPath) shape).lineTo(661.00775, 75.064186);

        g.draw(shape);

        // _0_0_24
        shape = new GeneralPath();
        ((GeneralPath) shape).moveTo(652.4907, 79.621185);
        ((GeneralPath) shape).lineTo(661.6857, 79.621185);

        g.draw(shape);

        // _0_0_25
        shape = new GeneralPath();
        ((GeneralPath) shape).moveTo(627.1708, 143.31717);
        ((GeneralPath) shape).lineTo(635.98175, 132.56818);
        ((GeneralPath) shape).lineTo(675.74976, 127.543175);

        g.draw(shape);

        // _0_0_26
        shape = new GeneralPath();
        ((GeneralPath) shape).moveTo(631.34375, 142.96617);
        ((GeneralPath) shape).curveTo(631.34375, 142.96617, 631.59875, 133.94518, 671.6937, 133.27019);

        g.setStroke(new BasicStroke(2.021574f, 0, 0, 4));
        g.draw(shape);

        // _0_0_27
        shape = new GeneralPath();
        ((GeneralPath) shape).moveTo(97.23276, 118.44718);
        ((GeneralPath) shape).lineTo(9.632759, 118.44718);

        g.setStroke(new BasicStroke(1.010787f, 0, 0, 4));
        g.draw(shape);

        // _0_0_28
        shape = new GeneralPath();
        ((GeneralPath) shape).moveTo(85.27176, 123.16618);
        ((GeneralPath) shape).lineTo(6.9357605, 121.48019);
        ((GeneralPath) shape).lineTo(6.9357605, 119.203186);

        g.draw(shape);

        // _0_0_29
        shape = new GeneralPath();
        ((GeneralPath) shape).moveTo(12.662755, 123.16618);
        ((GeneralPath) shape).curveTo(12.662755, 123.16618, 12.998755, 140.34718, 15.023755, 148.09927);
        ((GeneralPath) shape).curveTo(17.042755, 155.84528, 15.023755, 158.87828, 15.023755, 158.87828);

        g.draw(shape);

        // _0_0_30
        shape = new GeneralPath();
        ((GeneralPath) shape).moveTo(10.304755, 163.59727);
        ((GeneralPath) shape).lineTo(47.702755, 163.59727);

        g.draw(shape);

        // _0_0_31
        shape = new GeneralPath();
        ((GeneralPath) shape).moveTo(1.2087547, 137.98918);
        ((GeneralPath) shape).lineTo(22.886755, 137.98918);

        g.draw(shape);

        // _0_0_32
        shape = new GeneralPath();
        ((GeneralPath) shape).moveTo(5.447755, 144.34927);
        ((GeneralPath) shape).lineTo(14.270755, 144.34927);

        g.draw(shape);

        // _0_0_33
        shape = new GeneralPath();
        ((GeneralPath) shape).moveTo(6.935755, 121.48018);
        ((GeneralPath) shape).lineTo(3.9027548, 121.48018);
        ((GeneralPath) shape).lineTo(3.9027548, 137.98918);
        ((GeneralPath) shape).curveTo(3.9027548, 137.98918, 11.768755, 149.44627, 12.044755, 156.52026);

        g.draw(shape);

        // _0_0_34
        shape = new GeneralPath();
        ((GeneralPath) shape).moveTo(17.381756, 156.52026);
        ((GeneralPath) shape).lineTo(9.995756, 156.52026);

        g.draw(shape);

        // _0_0_35
        shape = new GeneralPath();
        ((GeneralPath) shape).moveTo(55.451756, 140.68617);
        ((GeneralPath) shape).curveTo(60.158756, 140.33517, 65.89776, 141.35817, 63.539757, 146.07426);
        ((GeneralPath) shape).curveTo(59.831757, 146.07426, 47.70276, 146.07426, 47.70276, 146.07426);
        ((GeneralPath) shape).curveTo(47.70276, 146.07426, 46.35576, 141.35817, 55.45176, 140.68617);
        ((GeneralPath) shape).closePath();

        g.draw(shape);

        // _0_0_36
        shape = new GeneralPath();
        ((GeneralPath) shape).moveTo(399.79474, 75.064186);
        ((GeneralPath) shape).curveTo(399.14374, 74.86919, 383.14172, 75.064186, 383.14172, 75.064186);
        ((GeneralPath) shape).curveTo(383.14172, 75.064186, 375.5367, 83.07118, 379.91672, 87.787186);
        ((GeneralPath) shape).curveTo(389.01273, 87.787186, 400.80573, 87.787186, 400.80573, 87.787186);
        ((GeneralPath) shape).curveTo(400.80573, 87.787186, 411.25174, 78.51718, 399.79474, 75.064186);

        g.setPaint(WHITE);
        g.fill(shape);

        // _0_0_37
        shape = new GeneralPath();
        ((GeneralPath) shape).moveTo(399.79474, 75.064186);
        ((GeneralPath) shape).curveTo(399.14374, 74.86919, 383.14172, 75.064186, 383.14172, 75.064186);
        ((GeneralPath) shape).curveTo(383.14172, 75.064186, 375.5367, 83.07118, 379.91672, 87.787186);
        ((GeneralPath) shape).curveTo(389.01273, 87.787186, 400.80573, 87.787186, 400.80573, 87.787186);
        ((GeneralPath) shape).curveTo(400.80573, 87.787186, 411.25174, 78.51718, 399.79474, 75.064186);
        ((GeneralPath) shape).closePath();

        g.setPaint(new Color(0x171516));
        g.draw(shape);

        // _0_0_38
        shape = new GeneralPath();
        ((GeneralPath) shape).moveTo(95.78976, 114.23518);
        ((GeneralPath) shape).curveTo(95.78976, 114.23518, 109.82975, 92.11919, 144.05675, 92.94418);
        ((GeneralPath) shape).curveTo(178.28674, 93.76918, 193.31075, 109.91818, 195.61475, 123.59518);

        g.draw(shape);

        // _0_0_39
        shape = new GeneralPath();
        ((GeneralPath) shape).moveTo(88.35576, 172.32127);
        ((GeneralPath) shape).lineTo(90.00876, 138.73618);
        ((GeneralPath) shape).curveTo(90.00876, 138.73618, 93.49476, 97.13518, 146.26175, 96.613174);
        ((GeneralPath) shape).curveTo(192.78575, 96.15717, 195.61475, 135.98218, 196.17874, 135.98218);
        ((GeneralPath) shape).curveTo(196.74574, 135.98218, 198.29375, 170.85426, 198.29375, 170.85426);

        g.draw(shape);

        // _0_0_40
        shape = new GeneralPath();
        ((GeneralPath) shape).moveTo(89.39976, 151.12627);
        ((GeneralPath) shape).lineTo(97.23276, 151.12627);

        g.draw(shape);

        // _0_0_41
        shape = new GeneralPath();
        ((GeneralPath) shape).moveTo(188.38174, 151.58228);
        ((GeneralPath) shape).lineTo(197.68774, 158.09528);

        g.draw(shape);

        // _0_0_42
        shape = new GeneralPath();
        ((GeneralPath) shape).moveTo(175.34074, 146.26328);
        ((GeneralPath) shape).curveTo(175.34074, 164.15228, 160.83574, 178.65427, 142.94675, 178.65427);
        ((GeneralPath) shape).curveTo(125.05475, 178.65427, 110.55275, 164.15227, 110.55275, 146.26328);
        ((GeneralPath) shape).curveTo(110.55275, 128.37119, 125.05475, 113.86919, 142.94675, 113.86919);
        ((GeneralPath) shape).curveTo(160.83575, 113.86919, 175.34074, 128.37119, 175.34074, 146.26328);

        g.setPaint(WHITE);
        g.fill(shape);

        // _0_0_43
        shape = new GeneralPath();
        ((GeneralPath) shape).moveTo(175.34074, 146.26328);
        ((GeneralPath) shape).curveTo(175.34074, 164.15228, 160.83574, 178.65427, 142.94675, 178.65427);
        ((GeneralPath) shape).curveTo(125.05475, 178.65427, 110.55275, 164.15227, 110.55275, 146.26328);
        ((GeneralPath) shape).curveTo(110.55275, 128.37119, 125.05475, 113.86919, 142.94675, 113.86919);
        ((GeneralPath) shape).curveTo(160.83575, 113.86919, 175.34074, 128.37119, 175.34074, 146.26328);
        ((GeneralPath) shape).closePath();

        g.setPaint(new Color(0x171516));
        g.draw(shape);

        // _0_0_44
        shape = new GeneralPath();
        ((GeneralPath) shape).moveTo(172.42474, 146.26328);
        ((GeneralPath) shape).curveTo(172.42474, 162.54727, 159.22774, 175.74428, 142.94675, 175.74428);
        ((GeneralPath) shape).curveTo(126.66275, 175.74428, 113.462746, 162.54727, 113.462746, 146.26328);
        ((GeneralPath) shape).curveTo(113.462746, 129.97919, 126.66274, 116.78218, 142.94675, 116.78218);
        ((GeneralPath) shape).curveTo(159.22775, 116.78218, 172.42474, 129.97919, 172.42474, 146.26328);
        ((GeneralPath) shape).closePath();

        g.draw(shape);

        // _0_0_45
        shape = new GeneralPath();
        ((GeneralPath) shape).moveTo(155.42674, 146.26328);
        ((GeneralPath) shape).curveTo(155.42674, 153.15428, 149.84074, 158.74327, 142.94675, 158.74327);
        ((GeneralPath) shape).curveTo(136.05275, 158.74327, 130.46675, 153.15427, 130.46675, 146.26328);
        ((GeneralPath) shape).curveTo(130.46675, 139.36919, 136.05275, 133.78319, 142.94675, 133.78319);
        ((GeneralPath) shape).curveTo(149.84074, 133.78319, 155.42674, 139.36919, 155.42674, 146.26328);
        ((GeneralPath) shape).closePath();

        g.draw(shape);

        // _0_0_46
        shape = new GeneralPath();
        ((GeneralPath) shape).moveTo(149.00375, 146.26328);
        ((GeneralPath) shape).curveTo(149.00375, 149.60828, 146.29175, 152.32028, 142.94675, 152.32028);
        ((GeneralPath) shape).curveTo(139.60175, 152.32028, 136.88974, 149.60828, 136.88974, 146.26328);
        ((GeneralPath) shape).curveTo(136.88974, 142.91818, 139.60175, 140.20619, 142.94675, 140.20619);
        ((GeneralPath) shape).curveTo(146.29175, 140.20619, 149.00375, 142.91818, 149.00375, 146.26328);
        ((GeneralPath) shape).closePath();

        g.draw(shape);

        // _0_0_47
        shape = new GeneralPath();
        ((GeneralPath) shape).moveTo(166.33475, 128.44618);
        ((GeneralPath) shape).lineTo(151.21475, 136.75319);
        ((GeneralPath) shape).lineTo(155.55875, 144.40628);
        ((GeneralPath) shape).lineTo(169.38574, 134.46419);
        ((GeneralPath) shape).curveTo(169.38574, 134.46419, 169.61674, 130.82219, 166.33475, 128.44618);
        ((GeneralPath) shape).closePath();

        g.draw(shape);

        // _0_0_48
        shape = new GeneralPath();
        ((GeneralPath) shape).moveTo(139.55675, 116.89918);
        ((GeneralPath) shape).lineTo(138.65375, 134.12518);
        ((GeneralPath) shape).lineTo(147.44675, 134.46718);
        ((GeneralPath) shape).lineTo(146.28275, 117.47818);
        ((GeneralPath) shape).curveTo(146.28275, 117.47818, 143.30675, 115.36018, 139.55675, 116.89918);
        ((GeneralPath) shape).closePath();

        g.draw(shape);

        // _0_0_49
        shape = new GeneralPath();
        ((GeneralPath) shape).moveTo(116.30675, 133.24318);
        ((GeneralPath) shape).lineTo(129.96875, 143.77917);
        ((GeneralPath) shape).lineTo(135.24574, 136.73819);
        ((GeneralPath) shape).lineTo(120.60574, 128.04118);
        ((GeneralPath) shape).curveTo(120.60574, 128.04118, 117.173744, 129.28618, 116.30675, 133.24318);
        ((GeneralPath) shape).closePath();

        g.draw(shape);

        // _0_0_50
        shape = new GeneralPath();
        ((GeneralPath) shape).moveTo(119.36075, 163.62727);
        ((GeneralPath) shape).lineTo(134.48074, 155.32027);
        ((GeneralPath) shape).lineTo(130.13974, 147.66727);
        ((GeneralPath) shape).lineTo(116.312744, 157.60626);
        ((GeneralPath) shape).curveTo(116.312744, 157.60626, 116.08174, 161.25127, 119.36074, 163.62726);
        ((GeneralPath) shape).closePath();

        g.draw(shape);

        // _0_0_51
        shape = new GeneralPath();
        ((GeneralPath) shape).moveTo(146.13875, 175.17427);
        ((GeneralPath) shape).lineTo(147.04475, 157.94827);
        ((GeneralPath) shape).lineTo(138.25175, 157.60628);
        ((GeneralPath) shape).lineTo(138.65375, 175.85828);
        ((GeneralPath) shape).curveTo(138.65375, 175.85828, 142.39175, 176.71327, 146.13875, 175.17427);
        ((GeneralPath) shape).closePath();

        g.draw(shape);

        // _0_0_52
        shape = new GeneralPath();
        ((GeneralPath) shape).moveTo(169.38875, 158.82727);
        ((GeneralPath) shape).lineTo(155.72975, 148.29427);
        ((GeneralPath) shape).lineTo(151.21475, 155.94426);
        ((GeneralPath) shape).lineTo(165.85776, 164.91125);
        ((GeneralPath) shape).curveTo(165.85776, 164.91125, 167.83176, 162.58325, 169.38876, 158.82726);
        ((GeneralPath) shape).closePath();

        g.draw(shape);

        // _0_0_53
        shape = new GeneralPath();
        ((GeneralPath) shape).moveTo(558.96277, 146.26328);
        ((GeneralPath) shape).curveTo(558.96277, 164.15228, 544.45776, 178.65427, 526.5688, 178.65427);
        ((GeneralPath) shape).curveTo(508.6738, 178.65427, 494.17178, 164.15227, 494.17178, 146.26328);
        ((GeneralPath) shape).curveTo(494.17178, 128.37119, 508.6738, 113.86919, 526.5688, 113.86919);
        ((GeneralPath) shape).curveTo(544.45776, 113.86919, 558.96277, 128.37119, 558.96277, 146.26328);

        g.setPaint(WHITE);
        g.fill(shape);

        // _0_0_54
        shape = new GeneralPath();
        ((GeneralPath) shape).moveTo(558.96277, 146.26328);
        ((GeneralPath) shape).curveTo(558.96277, 164.15228, 544.45776, 178.65427, 526.5688, 178.65427);
        ((GeneralPath) shape).curveTo(508.6738, 178.65427, 494.17178, 164.15227, 494.17178, 146.26328);
        ((GeneralPath) shape).curveTo(494.17178, 128.37119, 508.6738, 113.86919, 526.5688, 113.86919);
        ((GeneralPath) shape).curveTo(544.45776, 113.86919, 558.96277, 128.37119, 558.96277, 146.26328);
        ((GeneralPath) shape).closePath();

        g.setPaint(new Color(0x171516));
        g.draw(shape);

        // _0_0_55
        shape = new GeneralPath();
        ((GeneralPath) shape).moveTo(556.04675, 146.26328);
        ((GeneralPath) shape).curveTo(556.04675, 162.54727, 542.84674, 175.74428, 526.5687, 175.74428);
        ((GeneralPath) shape).curveTo(510.28772, 175.74428, 497.08774, 162.54727, 497.08774, 146.26328);
        ((GeneralPath) shape).curveTo(497.08774, 129.97919, 510.28775, 116.78218, 526.5687, 116.78218);
        ((GeneralPath) shape).curveTo(542.84674, 116.78218, 556.04675, 129.97919, 556.04675, 146.26328);

        g.setPaint(WHITE);
        g.fill(shape);

        // _0_0_56
        shape = new GeneralPath();
        ((GeneralPath) shape).moveTo(556.04675, 146.26328);
        ((GeneralPath) shape).curveTo(556.04675, 162.54727, 542.84674, 175.74428, 526.5687, 175.74428);
        ((GeneralPath) shape).curveTo(510.28772, 175.74428, 497.08774, 162.54727, 497.08774, 146.26328);
        ((GeneralPath) shape).curveTo(497.08774, 129.97919, 510.28775, 116.78218, 526.5687, 116.78218);
        ((GeneralPath) shape).curveTo(542.84674, 116.78218, 556.04675, 129.97919, 556.04675, 146.26328);
        ((GeneralPath) shape).closePath();

        g.setPaint(new Color(0x171516));
        g.draw(shape);

        // _0_0_57
        shape = new GeneralPath();
        ((GeneralPath) shape).moveTo(539.04877, 146.26328);
        ((GeneralPath) shape).curveTo(539.04877, 153.15428, 533.4598, 158.74327, 526.5688, 158.74327);
        ((GeneralPath) shape).curveTo(519.6718, 158.74327, 514.0888, 153.15427, 514.0888, 146.26328);
        ((GeneralPath) shape).curveTo(514.0888, 139.36919, 519.6718, 133.78319, 526.5688, 133.78319);
        ((GeneralPath) shape).curveTo(533.4598, 133.78319, 539.04877, 139.36919, 539.04877, 146.26328);
        ((GeneralPath) shape).closePath();

        g.draw(shape);

        // _0_0_58
        shape = new GeneralPath();
        ((GeneralPath) shape).moveTo(532.62573, 146.26328);
        ((GeneralPath) shape).curveTo(532.62573, 149.60828, 529.9107, 152.32028, 526.5687, 152.32028);
        ((GeneralPath) shape).curveTo(523.22375, 152.32028, 520.5117, 149.60828, 520.5117, 146.26328);
        ((GeneralPath) shape).curveTo(520.5117, 142.91818, 523.2237, 140.20619, 526.5687, 140.20619);
        ((GeneralPath) shape).curveTo(529.9107, 140.20619, 532.62573, 142.91818, 532.62573, 146.26328);
        ((GeneralPath) shape).closePath();

        g.draw(shape);

        // _0_0_59
        shape = new GeneralPath();
        ((GeneralPath) shape).moveTo(549.9567, 128.44618);
        ((GeneralPath) shape).lineTo(534.83673, 136.75319);
        ((GeneralPath) shape).lineTo(539.17773, 144.40628);
        ((GeneralPath) shape).lineTo(553.00775, 134.46419);
        ((GeneralPath) shape).curveTo(553.00775, 134.46419, 553.2358, 130.82219, 549.9567, 128.44618);
        ((GeneralPath) shape).closePath();

        g.draw(shape);

        // _0_0_60
        shape = new GeneralPath();
        ((GeneralPath) shape).moveTo(523.18176, 116.89918);
        ((GeneralPath) shape).lineTo(522.2698, 134.12518);
        ((GeneralPath) shape).lineTo(531.0688, 134.46718);
        ((GeneralPath) shape).lineTo(529.9048, 117.47818);
        ((GeneralPath) shape).curveTo(529.9048, 117.47818, 526.9288, 115.36018, 523.18176, 116.89918);
        ((GeneralPath) shape).closePath();

        g.draw(shape);

        // _0_0_61
        shape = new GeneralPath();
        ((GeneralPath) shape).moveTo(529.76074, 175.17427);
        ((GeneralPath) shape).lineTo(530.66675, 157.94827);
        ((GeneralPath) shape).lineTo(521.8737, 157.60628);
        ((GeneralPath) shape).lineTo(522.2697, 175.85828);
        ((GeneralPath) shape).curveTo(522.2697, 175.85828, 526.01373, 176.71327, 529.76074, 175.17427);
        ((GeneralPath) shape).closePath();

        g.draw(shape);

        // _0_0_62
        shape = new GeneralPath();
        ((GeneralPath) shape).moveTo(553.01074, 158.82727);
        ((GeneralPath) shape).lineTo(539.34875, 148.29427);
        ((GeneralPath) shape).lineTo(534.83673, 155.94426);
        ((GeneralPath) shape).lineTo(549.47675, 164.91125);
        ((GeneralPath) shape).curveTo(549.47675, 164.91125, 551.45374, 162.58325, 553.01074, 158.82726);
        ((GeneralPath) shape).closePath();

        g.draw(shape);

        // _0_0_63
        shape = new GeneralPath();
        ((GeneralPath) shape).moveTo(471.81274, 118.11118);
        ((GeneralPath) shape).curveTo(471.81274, 118.11118, 485.87973, 88.79819, 524.37274, 88.96619);
        ((GeneralPath) shape).curveTo(562.8687, 89.137184, 574.32574, 111.54118, 575.7567, 117.775185);

        g.draw(shape);

        // _0_0_64
        shape = new GeneralPath();
        ((GeneralPath) shape).moveTo(471.24875, 164.91127);
        ((GeneralPath) shape).lineTo(468.95074, 164.91127);
        ((GeneralPath) shape).curveTo(468.95074, 164.91127, 465.83374, 139.67519, 474.33875, 122.914185);
        ((GeneralPath) shape).curveTo(482.84674, 106.150185, 499.42175, 90.49019, 526.6708, 92.67419);
        ((GeneralPath) shape).curveTo(553.91675, 94.85519, 564.80676, 103.372185, 571.71277, 119.122185);
        ((GeneralPath) shape).curveTo(576.85175, 135.88318, 578.70276, 156.52028, 578.70276, 156.52028);
        ((GeneralPath) shape).curveTo(578.70276, 156.52028, 672.05975, 149.11028, 679.6288, 140.68619);

        g.draw(shape);

        // _0_0_65
        shape = new GeneralPath();
        ((GeneralPath) shape).moveTo(468.94174, 143.11917);
        ((GeneralPath) shape).lineTo(480.19174, 143.11917);

        g.draw(shape);

        // _0_0_66
        shape = new GeneralPath();
        ((GeneralPath) shape).moveTo(468.39276, 153.32227);
        ((GeneralPath) shape).lineTo(480.72876, 153.32227);

        g.draw(shape);

        // _0_0_67
        shape = new GeneralPath();
        ((GeneralPath) shape).moveTo(473.66675, 153.91026);
        ((GeneralPath) shape).lineTo(474.00275, 162.58327);

        g.draw(shape);

        // _0_0_68
        shape = new GeneralPath();
        ((GeneralPath) shape).moveTo(565.26276, 120.70018);
        ((GeneralPath) shape).lineTo(572.1838, 120.70018);

        g.draw(shape);

        // _0_0_69
        shape = new GeneralPath();
        ((GeneralPath) shape).moveTo(571.9647, 135.63118);
        ((GeneralPath) shape).lineTo(575.33673, 135.63118);

        g.draw(shape);

        // _0_0_70
        shape = new GeneralPath();
        ((GeneralPath) shape).moveTo(569.21674, 128.02618);
        ((GeneralPath) shape).lineTo(574.08875, 128.02618);

        g.draw(shape);

        // _0_0_71
        shape = new GeneralPath();
        ((GeneralPath) shape).moveTo(276.00275, 42.601185);
        ((GeneralPath) shape).curveTo(276.00275, 42.601185, 265.64676, 49.756187, 265.01974, 50.389183);
        ((GeneralPath) shape).curveTo(264.31775, 51.094185, 264.71075, 62.70418, 264.71075, 62.70418);
        ((GeneralPath) shape).lineTo(278.34274, 63.24718);
        ((GeneralPath) shape).lineTo(278.34274, 41.58718);
        ((GeneralPath) shape).lineTo(276.00275, 42.60118);

        g.setPaint(WHITE);
        g.fill(shape);

        // _0_0_72
        shape = new GeneralPath();
        ((GeneralPath) shape).moveTo(276.00275, 42.601185);
        ((GeneralPath) shape).curveTo(276.00275, 42.601185, 265.64676, 49.756187, 265.01974, 50.389183);
        ((GeneralPath) shape).curveTo(264.31775, 51.094185, 264.71075, 62.70418, 264.71075, 62.70418);
        ((GeneralPath) shape).lineTo(278.34274, 63.24718);
        ((GeneralPath) shape).lineTo(278.34274, 41.58718);
        ((GeneralPath) shape).lineTo(276.00275, 42.60118);
        ((GeneralPath) shape).closePath();

        g.setPaint(new Color(0x171516));
        g.draw(shape);

        // _0_0_73
        shape = new GeneralPath();
        ((GeneralPath) shape).moveTo(275.64874, 42.847183);
        ((GeneralPath) shape).lineTo(274.82974, 63.109184);

        g.setPaint(WHITE);
        g.fill(shape);

        // _0_0_74
        shape = new GeneralPath();
        ((GeneralPath) shape).moveTo(275.64874, 42.847183);
        ((GeneralPath) shape).lineTo(274.82974, 63.109184);

        g.setPaint(new Color(0x171516));
        g.draw(shape);

        // _0_0_75
        shape = new GeneralPath();
        ((GeneralPath) shape).moveTo(278.34274, 56.860184);
        ((GeneralPath) shape).lineTo(284.49875, 56.860184);
        ((GeneralPath) shape).lineTo(284.49875, 59.899185);
        ((GeneralPath) shape).lineTo(281.42075, 60.286186);
        ((GeneralPath) shape).lineTo(280.91376, 63.109184);

        g.setPaint(WHITE);
        g.fill(shape);

        // _0_0_76
        shape = new GeneralPath();
        ((GeneralPath) shape).moveTo(278.34274, 56.860184);
        ((GeneralPath) shape).lineTo(284.49875, 56.860184);
        ((GeneralPath) shape).lineTo(284.49875, 59.899185);
        ((GeneralPath) shape).lineTo(281.42075, 60.286186);
        ((GeneralPath) shape).lineTo(280.91376, 63.109184);

        g.setPaint(new Color(0x171516));
        g.draw(shape);

        // _0_0_77
        shape = new GeneralPath();
        ((GeneralPath) shape).moveTo(310.60175, 62.236183);
        ((GeneralPath) shape).curveTo(310.60175, 62.002182, 302.81076, 46.963184, 302.81076, 46.963184);
        ((GeneralPath) shape).curveTo(302.81076, 46.963184, 298.44577, 45.640182, 299.45676, 49.768185);
        ((GeneralPath) shape).curveTo(301.09476, 53.665184, 304.95276, 62.896187, 304.95276, 62.896187);
        ((GeneralPath) shape).lineTo(310.60175, 62.236187);

        g.setPaint(WHITE);
        g.fill(shape);

        // _0_0_78
        shape = new GeneralPath();
        ((GeneralPath) shape).moveTo(310.60175, 62.236183);
        ((GeneralPath) shape).curveTo(310.60175, 62.002182, 302.81076, 46.963184, 302.81076, 46.963184);
        ((GeneralPath) shape).curveTo(302.81076, 46.963184, 298.44577, 45.640182, 299.45676, 49.768185);
        ((GeneralPath) shape).curveTo(301.09476, 53.665184, 304.95276, 62.896187, 304.95276, 62.896187);
        ((GeneralPath) shape).lineTo(310.60175, 62.236187);
        ((GeneralPath) shape).closePath();

        g.setPaint(new Color(0x171516));
        g.draw(shape);

        // _0_0_79
        shape = new GeneralPath();
        ((GeneralPath) shape).moveTo(408.78574, 24.910194);
        ((GeneralPath) shape).lineTo(408.78574, 60.400185);
        ((GeneralPath) shape).lineTo(392.81674, 60.781185);
        ((GeneralPath) shape).curveTo(392.81674, 60.781185, 398.11176, 48.757187, 402.94174, 48.133186);
        ((GeneralPath) shape).curveTo(402.94174, 48.133186, 399.59375, 46.96319, 399.90274, 39.325188);
        ((GeneralPath) shape).curveTo(400.21774, 31.690197, 400.05875, 25.768196, 408.78574, 24.910196);
        ((GeneralPath) shape).closePath();

        g.draw(shape);

        // _0_0_80
        shape = new GeneralPath();
        ((GeneralPath) shape).moveTo(402.94174, 48.133183);
        ((GeneralPath) shape).lineTo(408.78574, 48.133183);

        g.draw(shape);

        // _0_0_81
        shape = new GeneralPath();
        ((GeneralPath) shape).moveTo(423.18875, 15.370184);
        ((GeneralPath) shape).lineTo(417.28476, 60.19918);
        ((GeneralPath) shape).lineTo(411.27875, 60.19918);
        ((GeneralPath) shape).lineTo(418.23276, 14.88718);
        ((GeneralPath) shape).lineTo(423.18875, 15.37018);
        ((GeneralPath) shape).closePath();

        g.draw(shape);

        // _0_0_82
        shape = new GeneralPath();
        ((GeneralPath) shape).moveTo(499.57175, 47.266186);
        ((GeneralPath) shape).curveTo(499.30176, 47.110188, 489.36273, 48.988186, 488.65775, 58.066185);
        ((GeneralPath) shape).curveTo(492.05673, 57.727184, 502.48474, 56.245186, 504.76776, 54.799187);
        ((GeneralPath) shape).curveTo(507.04477, 53.353188, 507.04477, 51.64319, 504.91776, 50.389187);
        ((GeneralPath) shape).curveTo(502.78775, 49.12919, 499.57175, 47.266186, 499.57175, 47.266186);
        ((GeneralPath) shape).closePath();

        g.draw(shape);

        // _0_0_83
        shape = new GeneralPath();
        ((GeneralPath) shape).moveTo(499.56274, 133.24318);
        ((GeneralPath) shape).lineTo(513.22174, 143.77917);
        ((GeneralPath) shape).lineTo(518.4987, 136.73819);
        ((GeneralPath) shape).lineTo(503.8587, 128.04118);
        ((GeneralPath) shape).curveTo(503.8587, 128.04118, 500.4267, 129.28618, 499.5627, 133.24318);
        ((GeneralPath) shape).closePath();

        g.draw(shape);

        // _0_0_84
        shape = new GeneralPath();
        ((GeneralPath) shape).moveTo(502.61374, 163.62727);
        ((GeneralPath) shape).lineTo(517.73376, 155.32027);
        ((GeneralPath) shape).lineTo(513.3898, 147.66727);
        ((GeneralPath) shape).lineTo(499.56577, 157.60626);
        ((GeneralPath) shape).curveTo(499.56577, 157.60626, 499.33176, 161.25127, 502.61377, 163.62726);
        ((GeneralPath) shape).closePath();

        g.draw(shape);

        // _0_0_85
        shape = new GeneralPath();
        ((GeneralPath) shape).moveTo(3.9027548, 127.77718);
        ((GeneralPath) shape).curveTo(3.9027548, 126.46619, 5.336755, 125.40418, 7.103755, 125.40418);
        ((GeneralPath) shape).curveTo(8.870755, 125.40418, 10.304755, 126.46618, 10.304755, 127.77718);
        ((GeneralPath) shape).curveTo(10.304755, 129.09119, 8.870755, 130.15619, 7.103755, 130.15619);
        ((GeneralPath) shape).curveTo(5.336755, 130.15619, 3.902755, 129.09119, 3.902755, 127.77719);
        ((GeneralPath) shape).closePath();

        g.draw(shape);

        // _0_0_86
        shape = new GeneralPath();
        ((GeneralPath) shape).moveTo(97.23276, 153.91026);
        ((GeneralPath) shape).lineTo(89.39976, 158.09526);

        g.draw(shape);

        // _0_0_87
        shape = new GeneralPath();
        ((GeneralPath) shape).moveTo(93.31476, 169.85828);
        ((GeneralPath) shape).lineTo(93.31476, 155.64728);

        g.draw(shape);

    }

    public Shape getAutoShape() {
        return autoShape;
    }

    @Override
    public boolean shapeContains(double x, double y) {
        return this.autoShape.contains(x, y);
    }

    @Override
    public int getShapeWidth() {
        return 684;
    }

    @Override
    public int getShapeHeight() {
        return 194;
    }
}

