package org.nekorp.workflow.desktop.view.resource.damage;

import java.awt.*;
import static java.awt.Color.*;
import java.awt.geom.*;
import org.nekorp.workflow.desktop.view.resource.ShapeView;

/**
 * This class has been automatically generated using
 * <a href="https://flamingo.dev.java.net">Flamingo SVG transcoder</a>.
 */
@org.springframework.stereotype.Component("autoCuatroFrontView")
public class AutoCuatroFrontView extends ShapeView {

    private Shape autoShape;
    
    @Override
    public void paint(Graphics gOld) {
        Graphics2D g = (Graphics2D) gOld;
        RenderingHints rh = new RenderingHints(
            RenderingHints.KEY_ANTIALIASING,
            RenderingHints.VALUE_ANTIALIAS_ON);
        g.setRenderingHints(rh);
        Shape shape;
        
        float origAlpha = 1.0f;
        Composite origComposite = ((Graphics2D)g).getComposite();
        if (origComposite instanceof AlphaComposite) {
            AlphaComposite origAlphaComposite = (AlphaComposite)origComposite;
            if (origAlphaComposite.getRule() == AlphaComposite.SRC_OVER) {
                origAlpha = origAlphaComposite.getAlpha();
            }
        }
        
        java.util.LinkedList<AffineTransform> transformations = new java.util.LinkedList<>();
        
        // 

        // _0

        // _0_0

        // _0_0_0
        shape = new GeneralPath();
        ((GeneralPath) shape).moveTo(25.334284, 59.3254);
        ((GeneralPath) shape).curveTo(25.940847, 56.817562, 26.315065, 54.85737, 26.373701, 53.985718);
        ((GeneralPath) shape).curveTo(26.41386, 53.38858, 25.910397, 53.164318, 25.729692, 53.045246);
        ((GeneralPath) shape).curveTo(24.475508, 51.968452, 12.759215, 51.08039, 5.8581104, 53.189457);
        ((GeneralPath) shape).curveTo(3.9391413, 53.775917, 2.7723682, 54.49536, 1.9395182, 55.214016);
        ((GeneralPath) shape).curveTo(0.9371941, 56.07891, 0.65905595, 57.09906, 0.51897657, 58.824802);
        ((GeneralPath) shape).curveTo(0.29094607, 61.381443, 0.6564114, 65.94792, 0.8329206, 66.79851);
        ((GeneralPath) shape).curveTo(1.0513078, 67.86126, 2.9849863, 68.70155, 6.198816, 68.710556);
        ((GeneralPath) shape).curveTo(10.518539, 68.722694, 17.030746, 68.73183, 22.930504, 68.67732);
        ((GeneralPath) shape).lineTo(23.623762, 66.12265);
        ((GeneralPath) shape).lineTo(27.397293, 66.10127);
        ((GeneralPath) shape).curveTo(21.797058, 78.13494, 19.910784, 87.017166, 20.005985, 95.12105);
        ((GeneralPath) shape).curveTo(17.575365, 108.488335, 18.853096, 123.29256, 21.657692, 136.98038);
        ((GeneralPath) shape).curveTo(21.680742, 141.83806, 21.638903, 181.05966, 21.651293, 186.51785);
        ((GeneralPath) shape).curveTo(22.36923, 190.28763, 25.077955, 191.21024, 26.317245, 191.3249);
        ((GeneralPath) shape).curveTo(28.070265, 191.3209, 35.22729, 191.3123, 41.63002, 191.33191);
        ((GeneralPath) shape).curveTo(43.411922, 191.08928, 45.60545, 190.20602, 45.75705, 187.1661);
        ((GeneralPath) shape).curveTo(45.75015, 179.30325, 45.76465, 173.32593, 45.74805, 166.68199);
        ((GeneralPath) shape).curveTo(46.14736, 166.42542, 46.55625, 166.17006, 46.96698, 165.86034);
        ((GeneralPath) shape).curveTo(47.988644, 165.08992, 49.25535, 164.4344, 50.653145, 164.53395);
        ((GeneralPath) shape).lineTo(217.32944, 164.51524);
        ((GeneralPath) shape).curveTo(218.62508, 164.55434, 219.74817, 165.26427, 221.5446, 166.50229);
        ((GeneralPath) shape).curveTo(221.5583, 170.36142, 221.5609, 185.17953, 221.5851, 187.40913);
        ((GeneralPath) shape).curveTo(221.6594, 189.13313, 222.73192, 191.01251, 225.80109, 191.32785);
        ((GeneralPath) shape).curveTo(229.74307, 191.32985, 235.93683, 191.31085, 240.9876, 191.32085);
        ((GeneralPath) shape).curveTo(243.02208, 191.0719, 245.04669, 189.68112, 245.66254, 186.52646);
        ((GeneralPath) shape).curveTo(245.65553, 173.71027, 245.64903, 147.9539, 245.65454, 138.30414);
        ((GeneralPath) shape).curveTo(248.52066, 123.87182, 250.12987, 110.328, 247.5552, 95.05179);
        ((GeneralPath) shape).curveTo(247.66322, 83.01963, 243.7543, 74.328064, 240.18462, 66.113556);
        ((GeneralPath) shape).lineTo(243.7379, 66.10396);
        ((GeneralPath) shape).lineTo(244.41412, 68.694336);
        ((GeneralPath) shape).lineTo(261.78024, 68.694336);
        ((GeneralPath) shape).curveTo(264.23807, 68.5521, 266.3949, 68.00419, 266.5556, 66.54227);
        ((GeneralPath) shape).curveTo(266.93033, 63.193275, 267.02155, 60.104095, 266.66138, 57.5773);
        ((GeneralPath) shape).curveTo(266.47925, 56.466507, 265.96854, 55.59501, 264.87988, 54.78092);
        ((GeneralPath) shape).curveTo(263.00958, 53.38225, 259.89877, 52.637035, 257.01462, 52.266384);
        ((GeneralPath) shape).curveTo(252.4588, 51.680904, 246.12895, 51.87773, 243.10564, 52.497868);
        ((GeneralPath) shape).curveTo(241.6977, 52.886425, 240.99591, 53.218037, 240.9492, 53.975883);
        ((GeneralPath) shape).curveTo(241.1821, 55.703, 241.58025, 57.64229, 242.0065, 59.330654);
        ((GeneralPath) shape).lineTo(237.16496, 59.315235);
        ((GeneralPath) shape).curveTo(230.82082, 43.769245, 223.67256, 26.438742, 214.39137, 12.65614);
        ((GeneralPath) shape).curveTo(212.37349, 9.767001, 209.43163, 5.8656006, 206.91515, 4.321923);
        ((GeneralPath) shape).curveTo(206.00339, 3.7626183, 205.0111, 3.7423728, 203.52048, 3.496715);
        ((GeneralPath) shape).curveTo(192.94824, 2.3157842, 153.77461, 1.3625166, 134.76984, 1.2056515);
        ((GeneralPath) shape).curveTo(121.48511, 1.0960022, 70.54741, 2.4277527, 63.452168, 3.5727592);
        ((GeneralPath) shape).curveTo(62.089813, 3.8107429, 61.490658, 3.7908351, 60.477192, 4.4235435);
        ((GeneralPath) shape).curveTo(49.535393, 12.850819, 38.16786, 40.51409, 30.441137, 59.301678);
        ((GeneralPath) shape).closePath();

        g.setPaint(WHITE);
        g.fill(shape);
        this.autoShape = shape;

        // _0_0_1
        shape = new GeneralPath();
        ((GeneralPath) shape).moveTo(247.56895, 95.14832);
        ((GeneralPath) shape).curveTo(247.91269, 79.01955, 239.31198, 65.472275, 236.67395, 58.03672);
        ((GeneralPath) shape).curveTo(219.1665, 14.147717, 209.09418, 5.276135, 206.45615, 4.074557);
        ((GeneralPath) shape).curveTo(201.65947, 1.9184146, 133.78957, 1.1983051, 133.78957, 1.1983051);
        ((GeneralPath) shape).curveTo(133.78957, 1.1983051, 65.92092, 1.9184146, 61.124237, 4.074557);
        ((GeneralPath) shape).curveTo(58.486206, 5.276135, 48.41388, 14.147717, 30.906551, 58.03672);
        ((GeneralPath) shape).curveTo(28.268606, 65.472275, 19.666311, 79.01955, 20.009745, 95.14832);

        g.setPaint(new Color(0x1E1D1F));
        g.setStroke(new BasicStroke(0.87222433f, 0, 0, 4));
        g.draw(shape);

        // _0_0_2
        shape = new GeneralPath();
        ((GeneralPath) shape).moveTo(133.79123, 95.68799);
        ((GeneralPath) shape).lineTo(81.74867, 95.68799);
        ((GeneralPath) shape).lineTo(85.10597, 111.03804);
        ((GeneralPath) shape).curveTo(85.10597, 111.03804, 58.965576, 111.03804, 51.051907, 111.03804);
        ((GeneralPath) shape).curveTo(43.137817, 111.03804, 42.41687, 105.04271, 42.17781, 105.76198);
        ((GeneralPath) shape).curveTo(41.9375, 106.48167, 42.897507, 92.571, 42.897507, 92.571);
        ((GeneralPath) shape).lineTo(37.140774, 62.830475);
        ((GeneralPath) shape).curveTo(37.381214, 62.11455, 230.43958, 62.830475, 230.43958, 62.830475);
        ((GeneralPath) shape).lineTo(224.68456, 92.571);
        ((GeneralPath) shape).curveTo(224.68456, 92.571, 225.64288, 106.48167, 225.40257, 105.76198);
        ((GeneralPath) shape).curveTo(225.16393, 105.04271, 224.44257, 111.03804, 216.53058, 111.03804);
        ((GeneralPath) shape).curveTo(208.61649, 111.03804, 182.47609, 111.03804, 182.47609, 111.03804);
        ((GeneralPath) shape).lineTo(185.83173, 95.68799);
        ((GeneralPath) shape).lineTo(133.78958, 95.68799);

        g.draw(shape);

        // _0_0_3
        shape = new GeneralPath();
        ((GeneralPath) shape).moveTo(133.78957, 11.991575);
        ((GeneralPath) shape).curveTo(133.78957, 11.991575, 203.57782, 14.151904, 206.93555, 14.867827);
        ((GeneralPath) shape).curveTo(210.29285, 15.587936, 227.08061, 54.197533, 230.43959, 62.830475);
        ((GeneralPath) shape).curveTo(233.31458, 63.311943, 235.23627, 61.394444, 240.75098, 74.34386);
        ((GeneralPath) shape).curveTo(246.26567, 87.294945, 253.70207, 103.84197, 244.58598, 143.1742);
        ((GeneralPath) shape).curveTo(240.51067, 159.7229, 235.23462, 167.87563, 228.9973, 168.5953);
        ((GeneralPath) shape).curveTo(222.7629, 169.31458, 220.60593, 164.5179, 217.24654, 164.5179);
        ((GeneralPath) shape).curveTo(213.88924, 164.5179, 133.78961, 164.5179, 133.78961, 164.5179);
        ((GeneralPath) shape).curveTo(133.78961, 164.5179, 53.689575, 164.5179, 50.332275, 164.5179);
        ((GeneralPath) shape).curveTo(46.974556, 164.5179, 44.8159, 169.31458, 38.581635, 168.5953);
        ((GeneralPath) shape).curveTo(32.34578, 167.87561, 27.06993, 159.72289, 22.992811, 143.1742);
        ((GeneralPath) shape).curveTo(13.878569, 103.84198, 21.31324, 87.294945, 26.829489, 74.34386);
        ((GeneralPath) shape).curveTo(32.344147, 61.394444, 34.26412, 63.311947, 37.14083, 62.830475);
        ((GeneralPath) shape).curveTo(40.498383, 54.197533, 57.287613, 15.587936, 60.645332, 14.867828);
        ((GeneralPath) shape).curveTo(64.00263, 14.151905, 133.78961, 11.991576, 133.78961, 11.991576);
        ((GeneralPath) shape).closePath();

        g.draw(shape);

        // _0_0_4
        shape = new GeneralPath();
        ((GeneralPath) shape).moveTo(35.462837, 62.512287);
        ((GeneralPath) shape).curveTo(45.054485, 27.896786, 63.42691, 3.5847147, 63.42691, 3.5847147);
        ((GeneralPath) shape).curveTo(63.42691, 3.5847147, 60.581223, 10.446689, 60.133247, 15.177641);

        g.draw(shape);

        // _0_0_5
        shape = new GeneralPath();
        ((GeneralPath) shape).moveTo(231.48624, 62.512287);
        ((GeneralPath) shape).curveTo(221.89287, 27.896786, 203.52211, 3.5847168, 203.52211, 3.5847168);
        ((GeneralPath) shape).curveTo(203.52211, 3.5847168, 206.3678, 10.4466915, 206.81578, 15.177643);

        g.draw(shape);

        // _0_0_6
        shape = new GeneralPath();
        ((GeneralPath) shape).moveTo(18.70957, 115.83473);
        ((GeneralPath) shape).curveTo(18.70957, 115.83473, 22.752357, 108.398346, 26.589035, 108.1597);
        ((GeneralPath) shape).curveTo(30.427385, 107.92106, 43.738194, 108.1597, 43.738194, 108.1597);

        g.draw(shape);

        // _0_0_7
        shape = new GeneralPath();
        ((GeneralPath) shape).moveTo(169.26668, 117.51275);
        ((GeneralPath) shape).curveTo(169.50533, 123.02912, 170.67967, 127.34643, 170.67967, 127.34643);
        ((GeneralPath) shape).curveTo(170.67967, 127.34643, 231.59424, 127.34643, 239.26761, 127.34643);
        ((GeneralPath) shape).curveTo(244.78398, 120.87005, 240.22762, 117.51275, 240.22762, 117.51275);
        ((GeneralPath) shape).lineTo(133.2662, 117.51275);
        ((GeneralPath) shape).lineTo(133.78955, 117.51275);
        ((GeneralPath) shape).lineTo(26.829422, 117.51275);
        ((GeneralPath) shape).curveTo(26.829422, 117.51275, 22.273138, 120.87005, 27.789429, 127.34643);
        ((GeneralPath) shape).curveTo(35.462826, 127.34643, 96.37736, 127.34643, 96.37736, 127.34643);
        ((GeneralPath) shape).curveTo(96.37736, 127.34643, 97.55005, 123.02912, 97.79037, 117.51275);

        g.draw(shape);

        // _0_0_8
        shape = new GeneralPath();
        ((GeneralPath) shape).moveTo(67.10658, 62.529034);
        ((GeneralPath) shape).curveTo(67.10658, 62.529034, 79.568665, 79.79994, 81.74867, 95.68799);

        g.draw(shape);

        // _0_0_9
        shape = new GeneralPath();
        ((GeneralPath) shape).moveTo(42.897507, 92.571);
        ((GeneralPath) shape).lineTo(81.07797, 92.571);

        g.draw(shape);

        // _0_0_10
        shape = new GeneralPath();
        ((GeneralPath) shape).moveTo(249.023, 115.83473);
        ((GeneralPath) shape).curveTo(249.023, 115.83473, 244.98033, 108.398346, 241.14366, 108.1597);
        ((GeneralPath) shape).curveTo(237.30698, 107.92106, 223.9946, 108.1597, 223.9946, 108.1597);

        g.draw(shape);

        // _0_0_11
        shape = new GeneralPath();
        ((GeneralPath) shape).moveTo(200.62576, 62.529034);
        ((GeneralPath) shape).curveTo(200.62576, 62.529034, 188.16579, 79.79994, 185.98535, 95.68799);

        g.draw(shape);

        // _0_0_12
        shape = new GeneralPath();
        ((GeneralPath) shape).moveTo(224.83485, 92.571);
        ((GeneralPath) shape).lineTo(186.65607, 92.571);

        g.draw(shape);

        // _0_0_13
        shape = new GeneralPath();
        ((GeneralPath) shape).moveTo(178.27475, 95.68799);
        ((GeneralPath) shape).curveTo(178.27475, 95.68799, 176.271, 103.50536, 174.34973, 109.33699);
        ((GeneralPath) shape).curveTo(172.76968, 114.13535, 170.86098, 114.13535, 170.86098, 114.13535);
        ((GeneralPath) shape).lineTo(132.74289, 114.13535);
        ((GeneralPath) shape).lineTo(133.79123, 114.13535);
        ((GeneralPath) shape).lineTo(95.672745, 114.13535);
        ((GeneralPath) shape).curveTo(95.672745, 114.13535, 93.76404, 114.13535, 92.1844, 109.33699);
        ((GeneralPath) shape).curveTo(90.26104, 103.50536, 88.259384, 95.68799, 88.259384, 95.68799);

        g.draw(shape);

        // _0_0_14
        shape = new GeneralPath();
        ((GeneralPath) shape).moveTo(89.145706, 99.03231);
        ((GeneralPath) shape).lineTo(177.388, 99.03231);
        ((GeneralPath) shape).lineTo(176.57536, 101.96466);
        ((GeneralPath) shape).lineTo(90.197395, 101.96466);
        ((GeneralPath) shape).lineTo(89.1457, 99.03231);

        g.fill(shape);

        // _0_0_15
        shape = new GeneralPath();
        ((GeneralPath) shape).moveTo(90.414696, 103.44465);
        ((GeneralPath) shape).lineTo(176.15335, 103.44465);
        ((GeneralPath) shape).lineTo(175.28503, 106.37868);
        ((GeneralPath) shape).lineTo(91.29766, 106.37868);
        ((GeneralPath) shape).lineTo(90.41469, 103.44465);

        g.fill(shape);

        // _0_0_16
        shape = new GeneralPath();
        ((GeneralPath) shape).moveTo(91.8277, 108.05336);
        ((GeneralPath) shape).lineTo(174.76505, 108.05336);
        ((GeneralPath) shape).lineTo(173.71669, 110.98738);
        ((GeneralPath) shape).lineTo(92.91204, 110.98738);
        ((GeneralPath) shape).lineTo(91.82769, 108.05336);

        g.fill(shape);

        // _0_0_17
        shape = new GeneralPath();
        ((GeneralPath) shape).moveTo(141.91759, 102.89201);
        ((GeneralPath) shape).curveTo(141.91759, 107.66902, 138.04323, 111.5417, 133.26622, 111.5417);
        ((GeneralPath) shape).curveTo(128.49046, 111.5417, 124.61612, 107.66902, 124.61612, 102.89201);
        ((GeneralPath) shape).curveTo(124.61612, 98.113335, 128.49046, 94.242325, 133.26622, 94.242325);
        ((GeneralPath) shape).curveTo(138.04323, 94.242325, 141.91759, 98.113335, 141.91759, 102.89201);

        g.setPaint(WHITE);
        g.fill(shape);

        // _0_0_18
        shape = new GeneralPath();
        ((GeneralPath) shape).moveTo(141.91759, 102.89201);
        ((GeneralPath) shape).curveTo(141.91759, 107.66902, 138.04323, 111.5417, 133.26622, 111.5417);
        ((GeneralPath) shape).curveTo(128.49046, 111.5417, 124.61612, 107.66902, 124.61612, 102.89201);
        ((GeneralPath) shape).curveTo(124.61612, 98.113335, 128.49046, 94.242325, 133.26622, 94.242325);
        ((GeneralPath) shape).curveTo(138.04323, 94.242325, 141.91759, 98.113335, 141.91759, 102.89201);
        ((GeneralPath) shape).closePath();

        g.setPaint(new Color(0x1E1D1F));
        g.setStroke(new BasicStroke(1.4618685f, 0, 0, 4));
        g.draw(shape);

        // _0_0_19
        shape = new GeneralPath();
        ((GeneralPath) shape).moveTo(48.035824, 139.61887);
        ((GeneralPath) shape).curveTo(48.035824, 139.61887, 44.32349, 140.68019, 45.120216, 145.63052);
        ((GeneralPath) shape).curveTo(45.120216, 145.63052, 45.82651, 153.14519, 55.197563, 153.14519);
        ((GeneralPath) shape).curveTo(64.56694, 153.14519, 90.41469, 153.14519, 90.41469, 153.14519);
        ((GeneralPath) shape).lineTo(87.81602, 139.61885);
        ((GeneralPath) shape).lineTo(48.035824, 139.61885);
        ((GeneralPath) shape).closePath();

        g.setStroke(new BasicStroke(0.87222433f, 0, 0, 4));
        g.draw(shape);

        // _0_0_20
        shape = new GeneralPath();
        ((GeneralPath) shape).moveTo(97.01039, 139.61887);
        ((GeneralPath) shape).curveTo(97.01039, 139.61887, 94.18103, 140.2385, 94.00436, 142.4478);
        ((GeneralPath) shape).curveTo(93.827675, 144.65753, 94.97902, 153.14519, 100.01643, 153.14519);
        ((GeneralPath) shape).curveTo(105.05511, 153.14519, 133.26622, 153.14519, 133.26622, 153.14519);
        ((GeneralPath) shape).lineTo(133.33952, 153.14519);
        ((GeneralPath) shape).curveTo(133.33952, 153.14519, 161.55066, 153.14519, 166.58932, 153.14519);
        ((GeneralPath) shape).curveTo(171.62842, 153.14519, 172.77809, 144.65753, 172.60141, 142.4478);
        ((GeneralPath) shape).curveTo(172.42473, 140.2385, 169.59537, 139.61887, 169.59537, 139.61887);
        ((GeneralPath) shape).lineTo(97.01043, 139.61887);
        ((GeneralPath) shape).closePath();

        g.draw(shape);

        // _0_0_21
        shape = new GeneralPath();
        ((GeneralPath) shape).moveTo(45.007175, 144.74586);
        ((GeneralPath) shape).lineTo(88.80072, 144.74586);

        g.draw(shape);

        // _0_0_22
        shape = new GeneralPath();
        ((GeneralPath) shape).moveTo(46.237225, 148.7609);
        ((GeneralPath) shape).lineTo(89.57233, 148.7609);

        g.draw(shape);

        // _0_0_23
        shape = new GeneralPath();
        ((GeneralPath) shape).moveTo(218.53055, 139.61887);
        ((GeneralPath) shape).curveTo(218.53055, 139.61887, 222.24455, 140.68019, 221.44992, 145.63052);
        ((GeneralPath) shape).curveTo(221.44992, 145.63052, 220.74321, 153.14519, 211.37215, 153.14519);
        ((GeneralPath) shape).curveTo(202.0011, 153.14519, 176.15335, 153.14519, 176.15335, 153.14519);
        ((GeneralPath) shape).lineTo(178.75203, 139.61885);
        ((GeneralPath) shape).lineTo(218.53055, 139.61885);
        ((GeneralPath) shape).closePath();

        g.draw(shape);

        // _0_0_24
        shape = new GeneralPath();
        ((GeneralPath) shape).moveTo(221.56087, 144.74586);
        ((GeneralPath) shape).lineTo(177.76773, 144.74586);

        g.draw(shape);

        // _0_0_25
        shape = new GeneralPath();
        ((GeneralPath) shape).moveTo(220.33124, 148.7609);
        ((GeneralPath) shape).lineTo(176.99571, 148.7609);

        g.draw(shape);

        // _0_0_26
        shape = new GeneralPath();
        ((GeneralPath) shape).moveTo(172.14502, 144.74586);
        ((GeneralPath) shape).lineTo(94.35938, 144.74586);

        g.draw(shape);

        // _0_0_27
        shape = new GeneralPath();
        ((GeneralPath) shape).moveTo(171.35834, 148.7609);
        ((GeneralPath) shape).lineTo(94.97901, 148.7609);

        g.draw(shape);

        // _0_0_28
        shape = new GeneralPath();
        ((GeneralPath) shape).moveTo(122.64879, 139.61887);
        ((GeneralPath) shape).lineTo(122.64879, 153.1452);

        g.draw(shape);

        // _0_0_29
        shape = new GeneralPath();
        ((GeneralPath) shape).moveTo(144.30693, 139.61887);
        ((GeneralPath) shape).lineTo(144.30693, 153.1452);

        g.draw(shape);

        // _0_0_30
        shape = new GeneralPath();
        ((GeneralPath) shape).moveTo(26.768936, 155.3026);
        ((GeneralPath) shape).lineTo(240.81166, 155.3026);

        g.draw(shape);

        // _0_0_31
        shape = new GeneralPath();
        ((GeneralPath) shape).moveTo(25.161333, 122.42875);
        ((GeneralPath) shape).curveTo(25.208723, 122.59873, 21.656618, 121.67473, 21.656618, 136.98418);
        ((GeneralPath) shape).lineTo(21.656618, 186.52896);
        ((GeneralPath) shape).curveTo(21.656618, 186.52896, 22.188118, 190.78305, 26.330631, 191.32607);
        ((GeneralPath) shape).curveTo(30.692318, 191.32607, 41.48609, 191.32607, 41.48609, 191.32607);
        ((GeneralPath) shape).curveTo(41.48609, 191.32607, 45.7545, 191.18373, 45.7545, 187.05733);
        ((GeneralPath) shape).curveTo(45.7545, 182.93303, 45.7545, 166.68492, 45.7545, 166.68492);

        g.draw(shape);

        // _0_0_32
        shape = new GeneralPath();
        ((GeneralPath) shape).moveTo(242.15433, 122.42875);
        ((GeneralPath) shape).curveTo(242.10663, 122.59873, 245.659, 121.67473, 245.659, 136.98418);
        ((GeneralPath) shape).lineTo(245.659, 186.52896);
        ((GeneralPath) shape).curveTo(245.659, 186.52896, 245.12897, 190.78305, 240.98666, 191.32607);
        ((GeneralPath) shape).curveTo(236.62497, 191.32607, 225.8292, 191.32607, 225.8292, 191.32607);
        ((GeneralPath) shape).curveTo(225.8292, 191.32607, 221.56087, 191.18373, 221.56087, 187.05733);
        ((GeneralPath) shape).curveTo(221.56087, 182.93303, 221.56087, 166.68492, 221.56087, 166.68492);

        g.draw(shape);

        // _0_0_33
        shape = new GeneralPath();
        ((GeneralPath) shape).moveTo(15.072389, 51.9451);
        ((GeneralPath) shape).curveTo(15.072389, 51.9451, 3.8893633, 51.857178, 1.161479, 56.14434);
        ((GeneralPath) shape).curveTo(-0.24825692, 58.63123, 0.83112454, 66.75758, 0.83112454, 66.75758);
        ((GeneralPath) shape).curveTo(0.83112454, 66.75758, 0.92270124, 68.70439, 6.468419, 68.70439);
        ((GeneralPath) shape).curveTo(12.014141, 68.70439, 22.925686, 68.70439, 22.925686, 68.70439);
        ((GeneralPath) shape).curveTo(22.925686, 68.70439, 26.373169, 56.110847, 26.373169, 53.8626);
        ((GeneralPath) shape).curveTo(26.373169, 51.618534, 15.072389, 51.9451, 15.072389, 51.9451);
        ((GeneralPath) shape).closePath();

        g.draw(shape);

        // _0_0_34
        shape = new GeneralPath();
        ((GeneralPath) shape).moveTo(25.336294, 59.317844);
        ((GeneralPath) shape).lineTo(30.679214, 59.317844);

        g.draw(shape);

        // _0_0_35
        shape = new GeneralPath();
        ((GeneralPath) shape).moveTo(23.619127, 66.11702);
        ((GeneralPath) shape).lineTo(27.400204, 66.11702);

        g.draw(shape);

        // _0_0_36
        shape = new GeneralPath();
        ((GeneralPath) shape).moveTo(252.266, 51.9451);
        ((GeneralPath) shape).curveTo(252.266, 51.9451, 263.44907, 51.857178, 266.1754, 56.14434);
        ((GeneralPath) shape).curveTo(267.58508, 58.63123, 266.50574, 66.75758, 266.50574, 66.75758);
        ((GeneralPath) shape).curveTo(266.50574, 66.75758, 266.41574, 68.70439, 260.86838, 68.70439);
        ((GeneralPath) shape).curveTo(255.32437, 68.70439, 244.41261, 68.70439, 244.41261, 68.70439);
        ((GeneralPath) shape).curveTo(244.41261, 68.70439, 240.9653, 56.110847, 240.9653, 53.8626);
        ((GeneralPath) shape).curveTo(240.9653, 51.618534, 252.266, 51.9451, 252.266, 51.9451);
        ((GeneralPath) shape).closePath();

        g.draw(shape);

        // _0_0_37
        shape = new GeneralPath();
        ((GeneralPath) shape).moveTo(242.00026, 59.317844);
        ((GeneralPath) shape).lineTo(236.65762, 59.317844);

        g.draw(shape);

        // _0_0_38
        shape = new GeneralPath();
        ((GeneralPath) shape).moveTo(243.71764, 66.11702);
        ((GeneralPath) shape).lineTo(239.93832, 66.11702);

        g.draw(shape);

        // _0_0_39
        shape = new GeneralPath();
        ((GeneralPath) shape).moveTo(72.33994, 30.982372);
        ((GeneralPath) shape).curveTo(73.40294, 27.850733, 74.68365, 25.749018, 77.573296, 25.749018);
        ((GeneralPath) shape).lineTo(99.81505, 25.749018);
        ((GeneralPath) shape).curveTo(102.706375, 25.749018, 103.88911, 27.725132, 105.04841, 30.982372);
        ((GeneralPath) shape).lineTo(108.53843, 43.77688);
        ((GeneralPath) shape).curveTo(108.53843, 46.66569, 106.19472, 49.01023, 103.30507, 49.01023);
        ((GeneralPath) shape).lineTo(74.084946, 49.01023);
        ((GeneralPath) shape).curveTo(71.1953, 49.01023, 68.85159, 46.665688, 68.85159, 43.77688);
        ((GeneralPath) shape).lineTo(72.339935, 30.982372);
        ((GeneralPath) shape).closePath();

        g.draw(shape);

        // _0_0_40
        shape = new GeneralPath();
        ((GeneralPath) shape).moveTo(58.967255, 62.512287);
        ((GeneralPath) shape).curveTo(58.967255, 62.512287, 56.93085, 55.407486, 88.69438, 55.407486);
        ((GeneralPath) shape).curveTo(120.45916, 55.407486, 119.29484, 62.512287, 119.29484, 62.512287);

        g.draw(shape);

        // _0_0_41
        shape = new GeneralPath();
        ((GeneralPath) shape).moveTo(78.30094, 55.407482);
        ((GeneralPath) shape).lineTo(81.07789, 55.407482);
        ((GeneralPath) shape).lineTo(81.07789, 49.01136);
        ((GeneralPath) shape).lineTo(78.30094, 49.01136);
        ((GeneralPath) shape).lineTo(78.30094, 55.407482);
        ((GeneralPath) shape).closePath();

        g.draw(shape);

        // _0_0_42
        shape = new GeneralPath();
        ((GeneralPath) shape).moveTo(97.47469, 55.407482);
        ((GeneralPath) shape).lineTo(100.25164, 55.407482);
        ((GeneralPath) shape).lineTo(100.25164, 49.01136);
        ((GeneralPath) shape).lineTo(97.47469, 49.01136);
        ((GeneralPath) shape).lineTo(97.47469, 55.407482);
        ((GeneralPath) shape).closePath();

        g.draw(shape);

        // _0_0_43
        shape = new GeneralPath();
        ((GeneralPath) shape).moveTo(160.60693, 30.982372);
        ((GeneralPath) shape).curveTo(161.66994, 27.850733, 162.95064, 25.749018, 165.84029, 25.749018);
        ((GeneralPath) shape).lineTo(188.08203, 25.749018);
        ((GeneralPath) shape).curveTo(190.9721, 25.749018, 192.15442, 27.725132, 193.31538, 30.982372);
        ((GeneralPath) shape).lineTo(196.80373, 43.77688);
        ((GeneralPath) shape).curveTo(196.80373, 46.66569, 194.46211, 49.01023, 191.57037, 49.01023);
        ((GeneralPath) shape).lineTo(162.35193, 49.01023);
        ((GeneralPath) shape).curveTo(159.46228, 49.01023, 157.11858, 46.665688, 157.11858, 43.77688);
        ((GeneralPath) shape).lineTo(160.60692, 30.982372);
        ((GeneralPath) shape).closePath();

        g.draw(shape);

        // _0_0_44
        shape = new GeneralPath();
        ((GeneralPath) shape).moveTo(147.23425, 62.512287);
        ((GeneralPath) shape).curveTo(147.23425, 62.512287, 145.19827, 55.407486, 176.96138, 55.407486);
        ((GeneralPath) shape).curveTo(208.72617, 55.407486, 207.56184, 62.512287, 207.56184, 62.512287);

        g.draw(shape);

        // _0_0_45
        shape = new GeneralPath();
        ((GeneralPath) shape).moveTo(166.5667, 55.407482);
        ((GeneralPath) shape).lineTo(169.34364, 55.407482);
        ((GeneralPath) shape).lineTo(169.34364, 49.01136);
        ((GeneralPath) shape).lineTo(166.5667, 49.01136);
        ((GeneralPath) shape).lineTo(166.5667, 55.407482);
        ((GeneralPath) shape).closePath();

        g.draw(shape);

        // _0_0_46
        shape = new GeneralPath();
        ((GeneralPath) shape).moveTo(185.7417, 55.407482);
        ((GeneralPath) shape).lineTo(188.51701, 55.407482);
        ((GeneralPath) shape).lineTo(188.51701, 49.01136);
        ((GeneralPath) shape).lineTo(185.7417, 49.01136);
        ((GeneralPath) shape).lineTo(185.7417, 55.407482);
        ((GeneralPath) shape).closePath();

        g.draw(shape);

        // _0_0_47
        shape = new GeneralPath();
        ((GeneralPath) shape).moveTo(157.09096, 62.52066);
        ((GeneralPath) shape).curveTo(157.09096, 62.52066, 163.7796, 51.011467, 178.33168, 51.011467);
        ((GeneralPath) shape).curveTo(191.54443, 51.011467, 199.4288, 62.529034, 199.4288, 62.529034);
        ((GeneralPath) shape).lineTo(195.20612, 62.39506);
        ((GeneralPath) shape).curveTo(195.20612, 62.39506, 189.50972, 53.515106, 178.27475, 53.515106);
        ((GeneralPath) shape).curveTo(165.9793, 53.515106, 161.49493, 62.466236, 161.49493, 62.466236);
        ((GeneralPath) shape).lineTo(157.09096, 62.520664);

        g.setPaint(WHITE);
        g.fill(shape);

        // _0_0_48
        shape = new GeneralPath();
        ((GeneralPath) shape).moveTo(157.09096, 62.52066);
        ((GeneralPath) shape).curveTo(157.09096, 62.52066, 163.7796, 51.011467, 178.33168, 51.011467);
        ((GeneralPath) shape).curveTo(191.54443, 51.011467, 199.4288, 62.529034, 199.4288, 62.529034);
        ((GeneralPath) shape).lineTo(195.20612, 62.39506);
        ((GeneralPath) shape).curveTo(195.20612, 62.39506, 189.50972, 53.515106, 178.27475, 53.515106);
        ((GeneralPath) shape).curveTo(165.9793, 53.515106, 161.49493, 62.466236, 161.49493, 62.466236);
        ((GeneralPath) shape).lineTo(157.09096, 62.520664);
        ((GeneralPath) shape).closePath();

        g.setPaint(new Color(0x171516));
        g.setStroke(new BasicStroke(0.7457991f, 0, 0, 4));
        g.draw(shape);
    }

    public Shape getAutoShape() {
        return autoShape;
    }

    @Override
    public boolean shapeContains(double x, double y) {
        return this.autoShape.contains(x, y);
    }

    @Override
    public int getShapeWidth() {
        return 268;
    }

    @Override
    public int getShapeHeight() {
        return 192;
    }
}

